tree
version=v3
num_class=1
num_tree_per_iteration=1
label_index=0
max_feature_idx=10
objective=regression
feature_names=Column_0 Column_1 Column_2 Column_3 Column_4 Column_5 Column_6 Column_7 Column_8 Column_9 Column_10
feature_infos=[-2.7720482166533289:4.0023891982585562] [-2.6467170672186899:6.773077686930022] [-9.3194184114499876:9.3951824690361558] [-1.7113723281831985:11.804923802638578] [-3.3051737438110154:7.1782040904055124] [-5.8787143495332215:7.3724297306366715] [-3.2931131287659721:3.520020172745173] [-13.471445993197266:14.732626511613203] [-7.3623853824133585:9.6924232007012865] [-2.2478102701365867:2.4482655510142446] [-3.3160566055700911:7.3261966167588417]
tree_sizes=2934 2933 2956 2942 2957 2948 2950 2942 2941 2953 2971 2933 2934 2938 2933 2953 2923 2929 2935 2916 2925 2959 2959 2932 2953 2934 2925 2934 2942 2926 2927 2965 2937 2947 2962 2920 2941 2946 2938 2972 2949 2932 2933 2942 2936 2939 2940 2958 2970 2926 2965 2930 2970 2924 2939 2945 2928 2953 2946 2948 2958 2926 2941 2941 2926 2965 2934 2972 2938 2937 2935 2959 2964 2952 2956 2953 2941 2950 2929 2925 2950 2906 2932 2939 2951 2956 2970 2954 2978 2941 2916 2920 2920 2922 2932 2904 2942 2963 2948 2960 2921 2934 2938 2968 2924 2922 2918 2909 2961 2970 2912 2938 2953 2939 2965 2965 2946 2954 2938 2944 2911 2912 2919 2939 2941 2915 2917 2911 2977 2925 2931 2943 2935 2927 2925 2929 2932 2902 2943 2952 2940 2932 2945 2945 2950 2946 2945 2967 2961 2925 2952 2953 2944 2951 2930 2956 2913 2988 2919 2957 2956 2945 2930 2930 2955 2913 2916 2931 2943 2916 2937 2966 2923 2902 2966 2959 2934 2977 2970 2924 2954 2959 2976 2976 2991 2947 2953 2926 2906 2910 2957 2952 2943 2932 2922 2937 2916 2949 2999 2946 2867 2876 2943 2886 2983 2957 2900 2921 2929 2919 2957 2953 2960 2941 2939 2968 2932 2919 2921 2967 2910 2908 2954 2911 2901 2981 2965 2958 2918 2949 2944 2931 2972 2897 2944 2897 2861 2838 2919 2904 2876 2853 2912 2919 2951 2938 2940 2960 2964 2911 2888 2935 2893 2938 2938 2888 2891 2897 2954 2863 2953 2882 2964 2964 2939 2911 2908 2976 2911 2914 2959 2934 2949 2919 2885 2956 2958 2949 2910 2946 2921 2878 2917 2925 2983 2911 2907 2963 2918 2810 2826 2957 2836 2904 2849 2911 2891 2891 2912 2883 2821 2816 2928 2935 2927 2932 2934 2917 2943 2904 2875 2947 2872 2937 2909 2888 2856 2859 2856 2866 2815 2901 2969 2822 2936 2981 2933 2947 2969 2966 2839 2955 2909 2838 2928 2902 2904 2904 2936 2901 2903 2929 2904 2820 2931 2867 2893 2908 2862 2884 2958 2937 2968 2954 2980 2971 2973 2888 2976 2975 2910 2909 2912 2856 2894 2899 2813 2813 2823 2845 2903 2846 2848 2842 2872 2929 2866 2933 2874 2918 2854 2859 2893 2882 2959 2933 2877 2920 2979 2885 2979 2936 2975 2966 2874 2924 2891 2899 2893 2953 2920 2884 2877 2855 2784 2901 2877 2880 2862 2865 2881 2881 2887 2877 2889 2904 2850 2827 2874 2939 2899 2869 2854 2844 2836 2946 2874 2954 2945 2993 2896 2880 2908 2970 2918 2895 2933 2881 2888 2945 2867 2993 2893 2878 2914 2915 2923 2902 2932 2814 2930 2966 2909 2961 2924 2946 2805 2802 2963 2832 2980 2892 2955 2967 2959 2779 2797 2909 2799 2799 2848 2849 2849 2918 2847 2905 2856 2816 2920 2834 2877 2869 2923 2874 2871 2909 2908 2908 2915 2764 2820 2838 2909 2826 2831 2855 2855 2901 2781 2859 2815 2946 2948 2879 2833 2910 2795 2849 2887 2846 2839 2859 2817 2867 2865 2861 2861 2895 2858 2862 2835 2797 2842 2807 2833 2803 2887 2855 2832 2875 2818 2821 2840 2814 2814 2842 2869 2843 2876 2899 2939 2898 2894 2907 2901 2905 2950 2874 2874 2913 2831 2864 2867 2860 2936 2882 2870 2876 2892 2846 2874 2876 2832 2871 2867 2813 2895 2845 2878 2912 2793 2770 2791 2775 2780 2826 2823 2830 2801 2829 2871 2898 2790 2773 2795 2782 2828 2848 2866 2832 2816 2876 2888 2947 2819 2971 2969 2962 2880 2902 2943 2892 2850 2946 2955 2857 2898 2801 2890 2826 2854 2861 2822 2816 2811 2863 2911 2863 2913 2866 2863 2893 2941 2842 2867 2810 2919 2859 2804 2856 2912 2900 2925 2905 2891 2777 2774 2785 2768 2770 2801 2873 2798 2777 2804 2789 2795 2808 2903 2899 2849 2921 2901 2847 2865 2857 2909 2850 2896 2879 2814 2936 2820 2819 2817 2882 2876 2855 2899 2888 2924 2913 2879 2815 2870 2885 2830 2842 2896 2877 2824 2809 2789 2829 2823 2773 2780 2774 2771 2769 2852 2830 2798 2813 2812 2906 2945 2972 2966 2940 2852 2826 2781 2855 2837 2839 2879 2856 2870 2870 2840 2831 2802 2817 2845 2798 2816 2821 2850 2844 2805 2838 2842 2792 2801 2804 2783 2802 2809 2765 2941 2940 2898 2931 2966 2802 2776 2800 2781 2810 2838 2813 2914 2830 2882 2897 2805 2866 2800 2903 2911 2884 2930 2899 2919 2923 2927 2903 2911 2933 2758 2949 2777 2752 2790 2814 2869 2811 2879 2924 2846 2835 2832 2934 2830 2853 2857 2860 2914 2827 2812 2818 2814 2858 2838 2796 2911 2814 2828 2843 2801 2785 2793 2754 2773 2854 2840 2829 2835 2799 2957 2787 2789 2905 2785 2855 2856 2859 2889 2789 2872 2874 2888 2878 2884 2765 2818 2802 2797 2809 2844 2867 2891 2837 2791 2836 2830 2825 2864 2816 2903 2905 2800 2880 2824 2801 2802 2785 2778 2769 2869 2799 2828 2853 2902 2807 2855 2800 2926 2810 2875 2825 2826 2878 2840 2824 2768 2805 2803 2829 2775 2809 2825 2767 2763 2774 2782 2931 2782 2924 2868 2824 2858 2844 2777 2862 2956 2963 2959 2958 2859 2865 2815 2859 2840 2879 2861 2850 2868 2812 2827 2834 2804 2841 2830 2835 2817 2840 2832 2843 2874 2903 2902 2921 2906 2795 2788 2812 2830 2810 2782 2877 2867 2829 2860 2962 2850 2866 2953 2957 2851 2884 2812 2845 2772 2822 2831 2843 2850 2816 2771 2889 2778 2858 2862 2853 2769 2808 2783 2890 2853 2853 2845 2819 2887 2772 2771 2817 2805 2783 2878 2795 2830 2884 2862 2848 2877 2912 2880 2885 2779 2957 2774 2968 2919 2790 2882 2787 2880 2783 2893 2866 2881 2862 2866 2859 2863 2868 2856 2847 2786 2831 2823 2765 2787 2818 2904 2768 2866 2835 2868 2859 2905 2891 2883 2859 2853 2842 2790 2865

Tree=0
num_leaves=31
num_cat=0
split_feature=6 0 0 6 5 6 5 0 9 0 6 0 5 6 0 0 6 5 0 0 5 6 6 5 9 6 5 5 6 5
split_gain=7.51495e+12 9.69039e+12 2.77023e+12 2.70962e+12 6.57805e+11 6.4195e+11 1.87858e+12 6.18875e+11 4.998e+11 4.33552e+11 3.42044e+11 3.62694e+11 3.38885e+11 3.3727e+11 3.24665e+11 3.18713e+11 2.90165e+11 8.24303e+11 2.81578e+11 2.81454e+11 2.47332e+11 3.44938e+11 2.37692e+11 3.54007e+11 2.23013e+11 2.14007e+11 2.09291e+11 2.0703e+11 2.00862e+11 3.48565e+11
threshold=1.0183110449632145 0.74544684081039303 -1.1353186046916248 -0.93992470838576481 1.7054801382109266 1.5318462268504536 0.44572913038963541 -2.2897562247522791 -0.91468647154444616 1.5756123294356692 0.80697431075701609 0.81047944833361496 0.28761085602422798 -1.2258137314749376 -1.6651505005129315 1.5171334382232027 1.1701298103703757 1.0688098467647402 1.0773519157759006 1.5171334382232027 -0.73535541504951796 1.8249524842732794 -0.67471568646540792 -0.33981528897373814 -0.89787605155101946 -1.0448007380935855 1.4225598993463773 0.72065541027340985 1.4076552458636207 0.039420694327940202
decision_type=2 2 2 2 2 2 2 2 2 2 2 2 2 2 2 2 2 2 2 2 2 2 2 2 2 2 2 2 2 2
left_child=2 7 14 8 9 6 28 -2 -4 24 -6 -12 19 -14 -1 -7 17 -8 -18 -10 21 -17 23 -11 -5 -16 -20 -22 -3 -30
right_child=1 5 3 4 10 15 16 -9 12 22 11 -13 13 -15 25 20 18 -19 26 -21 27 -23 -24 -25 -26 -27 -28 -29 29 -31
leaf_value=15849.518573185585 16012.364210783111 16016.306385241876 16122.577373548012 15970.809810691258 16003.111800670466 16176.513799945253 15990.420783746118 15909.800515051502 16012.759778305339 16072.113201655759 15923.442647282869 16367.380888456963 16012.936385305684 15911.816012776932 15964.317473937515 16035.339090208292 16132.459497803333 16335.652169688401 16350.128780135174 16098.072704910152 16356.155105227219 16306.409025590749 15938.675703370309 15920.948925083532 15904.003045091626 15883.553977986063 16148.100669306697 16087.636170441538 16041.00809886372 16309.920473849044
leaf_weight=35527 7917 5728 4600 5365 3655 3073 1290 22902 12129 3553 270 578 8596 5352 4046 743 867 1491 4544 5677 4437 1275 30212 2747 72799 17351 578 307 1475 716
leaf_count=35527 7917 5728 4600 5365 3655 3073 1290 22902 12129 3553 270 578 8596 5352 4046 743 867 1491 4544 5677 4437 1275 30212 2747 72799 17351 578 307 1475 716
internal_value=0 10159.7 -2740.9 -556.365 -2861.62 24172.3 20395.7 -1900.16 7000.93 -3327.17 8994.26 27088.3 5589.69 1898.6 -8709.69 30580.8 30477.4 22036.3 34397.1 8481.03 34418.4 25145.5 -482.248 5105.14 -4656.09 -5632.37 37218.1 38362.9 9230.52 17373.7
internal_weight=0 57343 212457 155533 119179 26524 16689 30819 36354 114676 4503 848 31754 13948 56924 9835 8770 2781 5989 17806 6762 2018 36512 6300 78164 21397 5122 4744 7919 2191
internal_count=269800 57343 212457 155533 119179 26524 16689 30819 36354 114676 4503 848 31754 13948 56924 9835 8770 2781 5989 17806 6762 2018 36512 6300 78164 21397 5122 4744 7919 2191
shrinkage=1


Tree=1
num_leaves=31
num_cat=0
split_feature=6 0 0 6 5 6 5 0 9 0 6 0 5 6 0 0 6 5 0 0 5 6 6 5 9 6 5 5 6 6
split_gain=7.36541e+12 9.49755e+12 2.7151e+12 2.6557e+12 6.44714e+11 6.29176e+11 1.8412e+12 6.06559e+11 4.89854e+11 4.24924e+11 3.35238e+11 3.55477e+11 3.32141e+11 3.30558e+11 3.18204e+11 3.1237e+11 2.84391e+11 8.07899e+11 2.75975e+11 2.75853e+11 2.4241e+11 3.38073e+11 2.32962e+11 3.46962e+11 2.18575e+11 2.09748e+11 2.05126e+11 2.0291e+11 1.99419e+11 1.96865e+11
threshold=1.0183110449632145 0.74544684081039303 -1.1353186046916248 -0.93992470838576481 1.7054801382109266 1.5318462268504536 0.44572913038963541 -2.2897562247522791 -0.91468647154444616 1.5756123294356692 0.80697431075701609 0.81047944833361496 0.28761085602422798 -1.2258137314749376 -1.6651505005129315 1.5171334382232027 1.1701298103703757 1.0688098467647402 1.0773519157759006 1.5171334382232027 -0.73535541504951796 1.8249524842732794 -0.67471568646540792 -0.33981528897373814 -0.89787605155101946 -1.0448007380935855 1.4225598993463773 0.72065541027340985 1.9358456639677415 1.4076552458636207
decision_type=2 2 2 2 2 2 2 2 2 2 2 2 2 2 2 2 2 2 2 2 2 2 2 2 2 2 2 2 2 2
left_child=2 7 14 8 9 6 29 -2 -4 24 -6 -12 19 -14 -1 -7 17 -8 -18 -10 21 -17 23 -11 -5 -16 -20 28 -22 -3
right_child=1 5 3 4 10 15 16 -9 12 22 11 -13 13 -15 25 20 18 -19 26 -21 27 -23 -24 -25 -26 -27 -28 -29 -30 -31
leaf_value=-104.57448362471402 56.642697882358817 60.545450701134271 165.7537230291035 15.503840904164736 47.48281253365257 219.1507821879205 34.918703542607702 -44.895361410573152 57.034307211743297 115.7941961908903 -31.389650535018355 408.10919691676503 57.209149180268305 -42.900019365920393 9.0764275713480771 79.387828141468532 175.53702521245646 376.69777885528157 391.02962836513268 141.49410398766844 418.35836369769345 347.74706860830275 -16.30892451035238 -33.85843540205537 -50.634857006800452 -70.87943327674158 191.02179290798708 131.16193816244021 186.60719052153868 171.99961727372593
leaf_weight=35527 7917 5728 4600 5365 3655 3073 1290 22902 12129 3553 270 578 8596 5352 4046 743 867 1491 4544 5677 4028 1275 30212 2747 72799 17351 578 307 409 2191
leaf_count=35527 7917 5728 4600 5365 3655 3073 1290 22902 12129 3553 270 578 8596 5352 4046 743 867 1491 4544 5677 4028 1275 30212 2747 72799 17351 578 307 409 2191
internal_value=0 10058.1 -2713.49 -550.801 -2833 23930.6 20191.7 -1881.16 6930.92 -3293.89 8904.32 26817.4 5533.79 1879.62 -8622.59 30275 30172.6 21815.9 34053.1 8396.22 34074.2 24894.1 -477.425 5054.09 -4609.52 -5576.04 36845.9 37979.3 39699.6 9138.22
internal_weight=0 57343 212457 155533 119179 26524 16689 30819 36354 114676 4503 848 31754 13948 56924 9835 8770 2781 5989 17806 6762 2018 36512 6300 78164 21397 5122 4744 4437 7919
internal_count=269800 57343 212457 155533 119179 26524 16689 30819 36354 114676 4503 848 31754 13948 56924 9835 8770 2781 5989 17806 6762 2018 36512 6300 78164 21397 5122 4744 4437 7919
shrinkage=0.01


Tree=2
num_leaves=31
num_cat=0
split_feature=0 0 0 9 5 5 5 2 4 0 1 7 4 4 5 8 1 3 7 1 5 3 5 9 5 5 7 2 8 5
split_gain=6.43193e+12 1.01221e+12 7.52336e+11 4.80039e+11 3.70835e+11 2.78663e+11 2.40612e+11 2.25067e+11 1.84774e+11 1.29241e+11 1.25163e+11 1.17481e+11 1.26233e+11 1.00638e+11 9.92106e+10 9.858e+10 9.79293e+10 8.25317e+10 8.89121e+10 8.78369e+10 1.41636e+11 8.20608e+10 8.32524e+10 8.13759e+10 7.47699e+10 7.4444e+10 8.42603e+10 1.01999e+11 7.34846e+10 1.19322e+11
threshold=1.1224400491435691 -1.1353186046916248 1.560235840732717 -0.89787605155101946 0.54543603786375228 0.4258594097684309 -0.096417106388029611 0.045150794452845221 -0.91248124260658026 -0.95745372495735703 -0.81215771522094438 -0.57848789975470238 0.50277253848816705 0.51746248063960143 -0.38285079677746753 0.047039011357859158 -1.4947797710167869 -0.65671224853068877 0.34401432511229096 -1.1487431501344265 0.22997618100106867 -0.16550693341019504 1.650516330644918 0.047884070905770793 1.0059304155129061 -0.37251340003780836 -0.45815647929849684 -0.55656924717853473 0.010630947022509541 1.2000517924548049
decision_type=2 2 2 2 2 2 2 2 2 2 2 2 2 2 2 2 2 2 2 2 2 2 2 2 2 2 2 2 2 2
left_child=1 6 4 9 14 15 -1 10 -6 -3 13 -5 24 -7 -2 -4 -10 19 -19 20 -16 22 -9 -14 -13 -17 -27 -28 29 -18
right_child=2 3 5 11 8 7 -8 21 16 -11 -12 12 23 -15 17 25 28 18 -20 -21 -22 -23 -24 -25 -26 26 27 -29 -30 -31
leaf_value=-86.8913284911349 -7.3951864738028625 -18.859887472004338 54.652592705133578 7.0540590209159948 154.67903420904324 440.9374568103222 -50.72576050248238 127.29242774134495 168.64217550663437 73.461293512576745 150.36943888752862 -25.619902730160554 -15.481591654062443 177.60247125938187 115.59584524854958 69.497279998707356 6.4359022887397828 9.2680692019406745 67.740059738346531 28.756097471751037 506.14586521220656 76.206727361226385 389.16268865108492 -59.11381337040811 11.42258422514902 60.365804157462506 164.92031078144714 70.747701118095122 112.81685349475771 91.86343504429648
leaf_weight=35636 15627 1954 26462 9624 2382 282 38026 2355 717 6770 5012 35537 5596 299 749 13177 4981 14776 3156 1095 106 9472 128 18100 6436 2414 3305 1764 1428 2434
leaf_count=35636 15627 1954 26462 9624 2382 282 38026 2355 717 6770 5012 35537 5596 299 749 13177 4981 14776 3156 1095 106 9472 128 18100 6436 2414 3305 1764 1428 2434
internal_value=0 -4116.29 5791.14 -1743.89 2767.08 8010.02 -6822.18 11411.6 7587.65 5278.32 16647.6 -2557.54 -3035.73 30541.7 1145.87 6743.28 5624.18 2627.77 1955.9 8806.19 16401.5 8962.08 14079.2 -4880.97 -1993.99 8380.2 10899.2 13214.8 4712.83 3447.78
internal_weight=0 157679 112121 84017 47451 64670 73662 17548 11942 8724 5593 75293 65669 581 35509 47122 9560 19882 17932 1950 855 11955 2483 23696 41973 20660 7483 5069 8843 7415
internal_count=269800 157679 112121 84017 47451 64670 73662 17548 11942 8724 5593 75293 65669 581 35509 47122 9560 19882 17932 1950 855 11955 2483 23696 41973 20660 7483 5069 8843 7415
shrinkage=0.01


Tree=3
num_leaves=31
num_cat=0
split_feature=6 0 0 6 6 5 0 5 9 0 6 5 5 6 0 0 6 0 0 0 6 5 5 6 6 6 5 5 5 6
split_gain=7.20552e+12 9.2194e+12 2.58918e+12 2.63132e+12 6.5832e+11 1.79039e+12 5.95057e+11 5.91462e+11 4.75269e+11 4.01525e+11 3.27848e+11 8.58846e+11 3.26784e+11 3.2362e+11 3.18756e+11 3.02936e+11 2.77994e+11 3.10242e+11 2.67067e+11 2.66097e+11 2.36804e+11 3.36252e+11 2.35935e+11 3.31361e+11 2.05117e+11 2.04412e+11 3.15109e+11 2.01149e+11 1.99247e+11 1.97174e+11
threshold=1.001414263546158 0.74544684081039303 -1.1353186046916248 -0.93992470838576481 1.5318462268504536 0.44572913038963541 -2.2897562247522791 1.7651135082874714 -0.91468647154444616 1.5898294903077315 1.1701298103703757 1.1603799516461908 0.28761085602422798 -1.2258137314749376 -1.6651505005129315 1.5171334382232027 0.80697431075701609 0.81047944833361496 1.0773519157759006 1.5171334382232027 -0.67471568646540792 -0.49470782054203405 -0.73535541504951796 1.8249524842732794 -1.0448007380935855 0.6934794859619644 -0.17585958388147432 1.4225598993463773 0.72065541027340985 1.4076552458636207
decision_type=2 2 2 2 2 2 2 2 2 2 2 2 2 2 2 2 2 2 2 2 2 2 2 2 2 2 2 2 2 2
left_child=2 6 14 8 5 29 -2 9 -4 25 11 -7 19 -14 -1 -6 -9 -18 -12 -10 21 -11 23 -17 -16 -5 -27 -20 -24 -3
right_child=1 4 3 7 15 10 -8 16 12 20 18 -13 13 -15 24 22 17 -19 27 -21 -22 -23 28 -25 -26 26 -28 -29 -30 -31
leaf_value=-103.51297234245449 55.406456876816229 58.709144281219423 163.41092479031397 -50.942243856999156 216.67698115235541 47.14117917602713 -43.899972680458362 51.441125713131783 56.596330834217596 125.27402795052653 173.85699694627985 382.12037957912037 56.413131129988933 -42.639754041946524 9.560855019178593 77.989692239787033 -32.499242122584377 411.9789689044992 385.99053714779876 139.54919643899768 -16.833783502646757 -23.345696199870535 391.99058956177191 343.67158255675071 -69.54451928047321 -103.22728724117178 39.977362132347693 187.93082856989236 128.56734460345311 169.71394294576524
leaf_weight=35261 8145 5934 4600 71149 3073 1584 23281 3335 12129 3076 867 1481 8596 5352 4046 743 232 486 4544 5677 29188 3014 4437 1275 17265 2081 5873 578 307 2191
leaf_count=35261 8145 5934 4600 71149 3073 1584 23281 3335 12129 3076 867 1481 8596 5352 4046 743 232 486 4544 5677 29188 3014 4437 1275 17265 2081 5873 578 307 2191
internal_value=0 9829.01 -2716.47 -600.537 23376.1 19640.9 -1816.17 -2884.85 6841.3 -3305.52 29311.8 20900.2 5465.13 1840.55 -8505.93 29900.4 8986.88 26835.9 33616.6 8304.38 -499.931 5172.07 33641.8 24585.1 -5452.6 -4556.74 251.082 36364 37494.4 8864.29
internal_weight=0 58440 211360 154788 27014 17179 31426 118434 36354 114381 9054 3065 31754 13948 56572 9835 4053 718 5989 17806 35278 6090 6762 2018 21311 79103 7954 5122 4744 8125
internal_count=269800 58440 211360 154788 27014 17179 31426 118434 36354 114381 9054 3065 31754 13948 56572 9835 4053 718 5989 17806 35278 6090 6762 2018 21311 79103 7954 5122 4744 8125
shrinkage=0.01


Tree=4
num_leaves=31
num_cat=0
split_feature=6 0 0 6 6 0 0 9 4 7 6 6 0 0 6 10 6 6 3 9 9 4 7 0 2 6 0 3 8 6
split_gain=7.06214e+12 9.03594e+12 2.53798e+12 2.67269e+12 6.4522e+11 5.89103e+11 5.83215e+11 5.0251e+11 4.77641e+11 4.89016e+11 3.377e+11 3.16266e+11 2.96908e+11 2.68887e+11 2.03034e+11 1.9661e+11 2.11653e+11 1.97469e+11 1.81898e+11 1.71752e+11 1.54529e+11 1.52584e+11 1.69805e+11 1.40621e+11 1.37284e+11 1.32588e+11 1.29748e+11 1.28839e+11 1.28721e+11 1.27965e+11
threshold=1.001414263546158 0.74544684081039303 -1.2902135218019086 -0.93992470838576481 1.5318462268504536 1.6412861346943635 -2.2897562247522791 -0.91468647154444616 0.77541429132582651 0.34401432511229096 0.6934794859619644 1.2289372849825164 1.5171334382232027 1.530576326343889 -1.2258137314749376 2.3276673033622295 -0.67471568646540792 0.84389896084024751 -0.18070550698163382 -0.89787605155101946 -1.0357730588319243 1.0222277257667163 0.2880280477111738 -1.6651505005129315 0.8636368399167188 1.3182554549989469 -1.3576257475405351 -0.58659438295290156 -0.075653678744690311 1.3618001783485894
decision_type=2 2 2 2 2 2 2 2 2 2 2 2 2 2 2 2 2 2 2 2 2 2 2 2 2 2 2 2 2 2
left_child=2 6 23 7 8 10 25 -4 9 11 19 28 -6 14 -9 16 -7 -18 -15 -5 -13 22 -12 -1 29 -2 -8 -16 -3 -11
right_child=1 4 3 5 12 15 26 13 -10 24 21 20 -14 18 27 -17 17 -19 -20 -21 -22 -23 -24 -25 -26 -27 -28 -29 -30 -31
leaf_value=-102.47784190874816 15.836178778079434 247.41417432203508 161.75898887182922 4.1790889558851907 214.51021265552521 58.506786936068366 -88.543955476452481 63.022924761873718 83.231809901566947 44.862068280712251 54.939024147005576 461.90924928119756 333.05404653174202 155.5954295466826 46.269121799656141 182.38089416349612 -16.27267321936629 99.84024067987653 63.397332679946921 -54.114598413375326 291.88361022550646 -85.003477145640417 -44.736617608541977 -60.516581452729106 224.38580024126071 96.574762177583651 -31.098993180223133 -18.584507824771972 141.51989037803932 177.19343220663032
leaf_weight=35261 4209 2455 4607 5403 3073 5490 5010 12081 3153 1922 6156 605 6762 3336 4943 615 25478 1554 5968 78311 4590 1411 2366 10325 1119 3936 18271 8055 2156 1179
leaf_count=35261 4209 2455 4607 5403 3073 5490 5010 12081 3153 1922 6156 605 6762 3336 4943 615 25478 1554 5968 78311 4590 1411 2366 10325 1119 3936 18271 8055 2156 1179
internal_value=0 9730.72 -2689.31 -872.159 23142.4 -3098.85 -1798.01 6368.39 19444.5 21944.6 -4381.1 25818.1 29601.4 5054.28 3350.97 524.861 189.899 -959.764 9645.55 -5035.23 31168.4 1131.76 2726.56 -9297.38 12943.7 5485.24 -4346.1 607.863 19790 9517.44
internal_weight=0 58440 211360 165774 27014 126784 31426 38990 17179 14026 93647 9806 9835 34383 25079 33137 32522 27032 9304 83714 5195 9933 8522 45586 4220 8145 23281 12998 4611 3101
internal_count=269800 58440 211360 165774 27014 126784 31426 38990 17179 14026 93647 9806 9835 34383 25079 33137 32522 27032 9304 83714 5195 9933 8522 45586 4220 8145 23281 12998 4611 3101
shrinkage=0.01


Tree=5
num_leaves=31
num_cat=0
split_feature=6 0 0 6 6 5 5 0 9 5 6 0 6 0 0 0 0 6 5 0 6 5 6 5 5 6 5 5 6 5
split_gain=6.86555e+12 8.74581e+12 2.55958e+12 2.56006e+12 5.87838e+11 1.74685e+12 5.82895e+11 5.64334e+11 4.79406e+11 3.7221e+11 3.63534e+11 3.61491e+11 3.55652e+11 3.84489e+11 3.0633e+11 2.82317e+11 2.74407e+11 2.74182e+11 3.19086e+11 2.32486e+11 2.55057e+11 7.12574e+11 2.02847e+11 2.96912e+11 1.98166e+11 3.09073e+11 2.12628e+11 1.96775e+11 3.02408e+11 1.95656e+11
threshold=1.0344772646888079 0.74544684081039303 -1.1437338160425465 -0.91946112242649558 1.5318462268504536 0.44572913038963541 1.650516330644918 -2.2897562247522791 -0.94531855249404695 0.23975948287301113 -1.2258137314749376 1.6412861346943635 0.80697431075701609 0.81047944833361496 1.560235840732717 1.5171334382232027 -1.6651505005129315 0.6934794859619644 -0.26711790838723498 1.1076290029114797 1.1556569362313132 1.1603799516461908 -0.65499086557607766 -0.49470782054203405 -0.70917924734614135 1.7667512100274432 0.72065541027340985 1.2861496012517386 0.76923859730948285 0.48574408024880505
decision_type=2 2 2 2 2 2 2 2 2 2 2 2 2 2 2 2 2 2 2 2 2 2 2 2 2 2 2 2 2 2
left_child=2 7 16 8 5 -3 11 -2 29 14 -11 17 -8 -14 -10 -6 27 -5 -19 -7 21 -21 23 -13 25 -17 -26 -1 -29 -4
right_child=1 4 3 6 15 19 12 -9 9 10 -12 22 13 -15 -16 24 -18 18 -20 20 -22 -23 -24 -25 26 -27 -28 28 -30 -31
leaf_value=-105.84926313954091 56.800942459894003 87.590592263590111 220.44795596305502 -50.036615149082877 214.55683784991035 189.57344109174534 34.544723171283394 -42.612130436247256 58.395441714140979 56.654418483212396 -42.031009386450307 122.00061767922546 -31.856513319656866 377.71146111286629 150.34719001077221 64.060524958660253 -54.541979009064548 -96.475222575718277 41.278259447069523 18.730590102631421 357.33555289233863 441.44217489237383 -15.366816726578664 -25.848777206393979 382.93328515056356 328.7657890630768 106.52336909053302 -101.47392693843972 156.34533296076114 89.615474619033648
leaf_weight=33886 7653 7746 2536 73407 3105 1638 3949 22493 13339 9240 6263 2861 342 695 4974 633 20713 2218 6952 869 5067 737 25727 2586 4420 1455 297 1176 742 2081
leaf_count=33886 7653 7746 2536 73407 3105 1638 3949 22493 13339 9240 6263 2861 342 695 4974 633 20713 2218 6952 869 5067 737 25727 2586 4420 1455 297 1176 742 2081
internal_value=0 9849.35 -2579.69 -504.3 23300.9 19563 -2800.45 -1737.47 6589.54 5284.51 1678.69 -3264.32 7782.42 24263.7 8337.05 29357.3 -8351.22 -4359.63 795.904 29632.5 32252.9 21271.5 -362.941 5180.81 32962.6 24851.7 36552.9 -10027.2 -173.363 16147.8
internal_weight=0 56113 213687 157170 25967 16057 118737 30146 38433 33816 15503 113751 4986 1037 18313 9910 56517 82577 9170 8311 6673 1606 31174 5447 6805 2088 4717 35804 1918 4617
internal_count=269800 56113 213687 157170 25967 16057 118737 30146 38433 33816 15503 113751 4986 1037 18313 9910 56517 82577 9170 8311 6673 1606 31174 5447 6805 2088 4717 35804 1918 4617
shrinkage=0.01


Tree=6
num_leaves=31
num_cat=0
split_feature=0 0 0 9 5 5 3 5 4 7 0 4 1 5 8 9 0 4 5 2 1 7 3 1 5 7 9 5 2 4
split_gain=5.97553e+12 9.3731e+11 6.76955e+11 4.54677e+11 3.5871e+11 2.01645e+11 2.2642e+11 2.01015e+11 1.75862e+11 1.23217e+11 1.21712e+11 1.17692e+11 1.16868e+11 1.06101e+11 9.30146e+10 7.83652e+10 7.50695e+10 1.25199e+11 1.17451e+11 1.13145e+11 9.39512e+10 8.49814e+10 7.45497e+10 8.95678e+10 1.36625e+11 8.21346e+10 7.25599e+10 1.19559e+11 6.93637e+10 6.80421e+10
threshold=1.1076290029114797 -1.1556350057436677 1.560235840732717 -0.89787605155101946 0.62059276877901515 0.4258594097684309 -0.18070550698163382 -0.12616026431998015 -0.91248124260658026 -0.57848789975470238 -0.95745372495735703 0.55954964772472515 -1.4947797710167869 -0.38285079677746753 -0.033289516592070585 -0.81802306060962893 1.6877097647910089 -0.47090848294280668 1.0059304155129061 0.22724703448614242 -0.44279781480322439 0.4553964425816121 -0.66302305198048306 -1.1351179484814076 0.28761085602422798 0.27922806577517573 0.036762361459070955 1.2210475206017264 -0.090229365789061558 0.020858681854338146
decision_type=2 2 2 2 2 2 2 2 2 2 2 2 2 2 2 2 2 2 2 2 2 2 2 2 2 2 2 2 2 2
left_child=1 7 4 10 13 14 16 -1 -6 -5 -3 -11 -10 -2 15 -4 20 -18 21 -20 -7 -19 23 24 -15 -24 27 -9 -8 -28
right_child=2 3 5 9 8 6 28 26 12 11 -12 -13 -14 22 -16 -17 17 18 19 -21 -22 -23 25 -25 -26 -27 29 -29 -30 -31
leaf_value=-84.249802635579925 -6.9031707284978374 -17.843647927035803 93.219990192633972 7.9477218498519742 159.38816112382327 307.27176878132741 128.41258052092664 -77.154662660159261 179.85151775835624 -20.56272211178586 70.45464318041013 -48.510467735089996 46.981424795911707 123.4801132485719 80.56615316205523 44.645296775897208 330.83156702215018 85.275169023220414 400.72992991119509 158.43481994305907 85.295706395209947 620.59171354166665 10.827256504697575 25.888690346743001 572.81452578570395 61.078312661346281 -23.561190389356462 -8.2517744727696627 70.704952713079138 -62.080364986460353
leaf_weight=33962 15958 2023 3959 9679 2132 667 2648 14721 722 43526 6837 23046 7962 791 22635 20618 330 2581 253 809 267 30 15738 1099 74 4100 12637 3038 9760 7198
leaf_count=33962 15958 2023 3959 9679 2132 667 2648 14721 722 43526 6837 23046 7962 791 22635 20618 330 2581 253 809 267 30 15738 1099 74 4100 12637 3038 9760 7198
internal_value=0 -3993.96 5543.35 -1751.19 2723.38 7665.25 10581.1 -6661.57 7800.8 -2539.06 5029.35 -3023.77 5802.84 1268.99 6594.02 5247 16308.9 14425.3 12749 21615.7 24381.6 9142.59 2703.12 8580.08 16192 2121.28 -5068.52 -6536.76 8302.04 -3753.96
internal_weight=0 156667 113133 85111 48576 64557 17345 71556 10816 76251 8860 66572 8684 37760 47212 24577 4937 4003 3673 1062 934 2611 21802 1964 865 19838 37594 17759 12408 19835
internal_count=269800 156667 113133 85111 48576 64557 17345 71556 10816 76251 8860 66572 8684 37760 47212 24577 4937 4003 3673 1062 934 2611 21802 1964 865 19838 37594 17759 12408 19835
shrinkage=0.01


Tree=7
num_leaves=31
num_cat=0
split_feature=6 0 0 6 6 5 5 0 9 5 6 6 0 0 0 0 6 5 0 0 6 5 6 5 5 6 5 4 5 5
split_gain=6.71653e+12 8.49707e+12 2.45189e+12 2.51023e+12 5.76828e+11 1.70498e+12 5.69619e+11 5.55574e+11 4.6464e+11 3.65356e+11 3.55962e+11 3.48922e+11 3.75741e+11 3.41692e+11 2.95714e+11 2.74111e+11 2.67367e+11 3.11336e+11 2.66954e+11 2.23275e+11 2.49339e+11 6.99341e+11 1.98939e+11 2.91341e+11 1.93481e+11 3.02934e+11 2.0915e+11 1.95067e+11 1.91902e+11 1.903e+11
threshold=1.0344772646888079 0.74544684081039303 -1.1437338160425465 -0.91946112242649558 1.5318462268504536 0.44572913038963541 1.650516330644918 -2.2897562247522791 -0.94531855249404695 0.23975948287301113 -1.2258137314749376 0.80697431075701609 0.81047944833361496 1.6412861346943635 1.560235840732717 1.5171334382232027 0.6934794859619644 -0.26711790838723498 -1.6651505005129315 1.1076290029114797 1.1556569362313132 1.1603799516461908 -0.65499086557607766 -0.49470782054203405 -0.70917924734614135 1.7667512100274432 0.72065541027340985 -0.3594055801193603 0.48574408024880505 1.2861496012517386
decision_type=2 2 2 2 2 2 2 2 2 2 2 2 2 2 2 2 2 2 2 2 2 2 2 2 2 2 2 2 2 2
left_child=2 7 18 8 5 -3 13 -2 28 14 -11 -8 -13 16 -10 -6 -5 -18 29 -7 21 -21 23 -15 25 -17 -26 -27 -4 -1
right_child=1 4 3 6 15 19 11 -9 9 10 -12 12 -14 22 -16 24 17 -19 -20 20 -22 -23 -24 -25 26 27 -28 -29 -30 -31
leaf_value=-104.01933792881059 56.807293584596152 86.242987076602972 217.54188197690982 -49.534479014663248 212.14181816137625 187.8453892022666 33.808352601808913 -41.831163734133959 57.898189168025631 55.919082359811156 -41.733181813047295 -31.430358563975282 373.45125299761111 120.11402427988342 148.24252538318001 62.766649808808332 -95.422325588979618 40.648064659300282 -53.429894106075466 17.389425979832101 352.55455496159306 436.15769907812904 -15.941510273493114 -26.341578143552027 378.26380326105027 498.7046575792391 104.12370444660637 247.7244807765976 87.970660398410871 -1.6309026283765362
leaf_weight=33886 7653 7746 2536 73407 3105 1638 3949 22493 13339 9240 6263 342 695 2861 4974 633 2218 6952 20713 869 5067 737 25727 2586 4420 447 297 1008 2081 1918
leaf_count=33886 7653 7746 2536 73407 3105 1638 3949 22493 13339 9240 6263 342 695 2861 4974 633 2218 6952 20713 869 5067 737 25727 2586 4420 447 297 1008 2081 1918
internal_value=0 9741.82 -2551.59 -520.327 23000.7 19298 -2794.02 -1679.04 6504.13 5219.36 1646.89 7667.64 23992.2 -3252.58 8243.66 29000.1 -4317.47 773.595 -8200.4 29246.1 31814.1 20956.4 -431.771 5058.32 32552.7 24538.2 36100.3 32483 15914.1 -9853.44
internal_weight=0 56113 213687 157170 25967 16057 118737 30146 38433 33816 15503 4986 1037 113751 18313 9910 82577 9170 56517 8311 6673 1606 31174 5447 6805 2088 4717 1455 4617 35804
internal_count=269800 56113 213687 157170 25967 16057 118737 30146 38433 33816 15503 4986 1037 113751 18313 9910 82577 9170 56517 8311 6673 1606 31174 5447 6805 2088 4717 1455 4617 35804
shrinkage=0.01


Tree=8
num_leaves=31
num_cat=0
split_feature=6 0 0 6 6 5 5 0 9 5 6 6 0 0 0 0 6 5 0 0 6 5 6 5 6 5 6 5 4 6
split_gain=6.58287e+12 8.32798e+12 2.4031e+12 2.46028e+12 5.65349e+11 1.67105e+12 5.58283e+11 5.44518e+11 4.55394e+11 3.58085e+11 3.48878e+11 3.41979e+11 3.68263e+11 3.34893e+11 2.89829e+11 2.68656e+11 2.62047e+11 3.0514e+11 2.61642e+11 2.18832e+11 2.44377e+11 6.85425e+11 1.9498e+11 2.85543e+11 1.89657e+11 1.8963e+11 2.96906e+11 2.04988e+11 1.91185e+11 1.89026e+11
threshold=1.0344772646888079 0.74544684081039303 -1.1437338160425465 -0.91946112242649558 1.5318462268504536 0.44572913038963541 1.650516330644918 -2.2897562247522791 -0.94531855249404695 0.23975948287301113 -1.2258137314749376 0.80697431075701609 0.81047944833361496 1.6412861346943635 1.560235840732717 1.5171334382232027 0.6934794859619644 -0.26711790838723498 -1.6651505005129315 1.1076290029114797 1.1556569362313132 1.1603799516461908 -0.65499086557607766 -0.49470782054203405 -1.0672535569055859 -0.70917924734614135 1.7667512100274432 0.72065541027340985 -0.3594055801193603 1.4076552458636207
decision_type=2 2 2 2 2 2 2 2 2 2 2 2 2 2 2 2 2 2 2 2 2 2 2 2 2 2 2 2 2 2
left_child=2 7 18 8 5 29 13 -2 -4 14 -11 -8 -13 16 -10 -6 -5 -18 -1 -7 21 -21 23 -15 -20 26 -17 -27 -28 -3
right_child=1 4 3 6 15 19 11 -9 9 10 -12 12 -14 22 -16 25 17 -19 24 20 -22 -23 -24 -25 -26 27 28 -29 -30 -31
leaf_value=-97.549103365441368 56.239221361516492 54.287214913356195 157.54940953651908 -49.039134450797484 210.0203993862493 185.96693575896626 33.470269591615725 -41.412851749515859 57.31920742568326 55.359891382102234 -41.31584963606052 -31.116055270468284 369.71674088682715 118.91288207505143 146.76010049882308 62.138983366907489 -94.468102072499917 40.241583772770831 12.097633351217441 17.215531510922659 349.0290102558605 431.79612551021449 -15.782096066321543 -26.078161908328212 -66.983888282714958 374.48116642772663 493.71761630295106 103.08246754193547 245.24723806570449 163.86366120038846
leaf_weight=35804 7653 5548 4617 73407 3105 1638 3949 22493 13339 9240 6263 342 695 2861 4974 633 2218 6952 3690 869 5067 737 25727 2586 17023 4420 447 297 1008 2198
leaf_count=35804 7653 5548 4617 73407 3105 1638 3949 22493 13339 9240 6263 342 695 2861 4974 633 2218 6952 3690 869 5067 737 25727 2586 17023 4420 447 297 1008 2198
internal_value=0 9644.41 -2526.08 -515.124 22770.7 19105 -2766.08 -1662.25 6439.09 5167.17 1630.42 7590.97 23752.3 -3220.05 8161.23 28710.1 -4274.3 765.859 -8118.4 28953.7 31495.9 20746.8 -427.454 5007.74 -5289.56 32227.1 24292.9 35739.3 32158.1 8538.06
internal_weight=0 56113 213687 157170 25967 16057 118737 30146 38433 33816 15503 4986 1037 113751 18313 9910 82577 9170 56517 8311 6673 1606 31174 5447 20713 6805 2088 4717 1455 7746
internal_count=269800 56113 213687 157170 25967 16057 118737 30146 38433 33816 15503 4986 1037 113751 18313 9910 82577 9170 56517 8311 6673 1606 31174 5447 20713 6805 2088 4717 1455 7746
shrinkage=0.01


Tree=9
num_leaves=31
num_cat=0
split_feature=6 0 0 6 6 6 0 4 9 7 0 0 0 0 6 6 3 10 6 6 9 7 0 9 6 0 8 6 4 3
split_gain=6.45187e+12 8.16225e+12 2.35528e+12 2.41132e+12 5.54098e+11 5.37402e+11 5.33682e+11 4.73077e+11 4.46331e+11 4.32312e+11 4.11838e+11 2.6331e+11 2.56435e+11 2.52165e+11 2.1103e+11 2.03273e+11 1.94576e+11 1.91201e+11 2.07484e+11 1.85883e+11 1.65407e+11 1.49656e+11 1.50209e+11 1.48515e+11 1.43098e+11 1.54456e+11 1.38239e+11 1.31778e+11 1.29768e+11 1.27603e+11
threshold=1.0344772646888079 0.74544684081039303 -1.1437338160425465 -0.91946112242649558 1.5318462268504536 0.80697431075701609 -2.2897562247522791 0.77541429132582651 -0.94531855249404695 0.27005113980398554 1.6412861346943635 1.5171334382232027 -1.6651505005129315 1.530576326343889 1.2136799177010238 -1.2258137314749376 -0.10887844092711432 2.3276673033622295 -0.59665007225110189 -1.0672535569055859 -0.89787605155101946 0.39109534407380581 1.4856673026416176 -0.87295135791855905 0.84389896084024751 -2.558970375117926 -0.075653678744690311 1.3182554549989469 1.3600790378769503 -0.58012094835007066
decision_type=2 2 2 2 2 2 2 2 2 2 2 2 2 2 2 2 2 2 2 2 2 2 2 2 2 2 2 2 2 2
left_child=2 6 12 8 7 10 27 9 -4 14 20 28 24 15 26 -10 -15 18 -12 -14 -5 22 -7 -16 -1 -26 -3 -2 -6 -17
right_child=1 4 3 5 11 21 -8 -9 13 -11 17 -13 19 16 23 29 -18 -19 -20 -21 -22 -23 -24 -25 25 -27 -28 -29 -30 -31
leaf_value=-102.18872084229569 13.541624455892357 256.22340271653354 155.9739154208809 6.7548360900917359 178.89164153457057 34.949647995539962 -40.99872313402453 76.271145761703934 65.058515507164287 135.82722665391466 42.47107932280754 319.048735604179 11.976656972366943 145.31423397998418 425.44999671551085 46.295560720149659 55.723549942671944 179.22941736140723 -20.183493522855578 -66.314049742398296 -49.729974533062112 -25.3972417053829 132.13455060760131 274.7513253644496 60.384349767956614 -94.173776774527852 128.06875531125067 96.543096405814822 351.8928877816868 -18.428642077012132
leaf_weight=33186 3768 1776 4617 5580 2584 4680 22493 3016 11015 4493 6837 6805 3690 4189 768 4957 5754 568 23290 17023 73108 2265 2409 4404 1165 1453 1600 3885 521 7901
leaf_count=33186 3768 1776 4617 5580 2584 4680 22493 3016 11015 4493 6837 6805 3690 4189 768 4957 5754 568 23290 17023 73108 2265 2409 4404 1165 1453 1600 3885 521 7901
internal_value=0 9547.96 -2500.81 -509.972 22543 -2738.41 -1645.62 18914 6374.7 21524.3 -3360.54 28423 -8037.21 5115.5 25698.6 3353.17 9346.82 -253.776 -596.471 -5236.66 -4572.45 4536.58 6797.52 29712.9 -9657.36 -2539.6 19548.7 5567.68 20792 652.375
internal_weight=0 56113 213687 157170 25967 118737 30146 16057 38433 13041 109383 9910 56517 33816 8548 23873 9943 30695 30127 20713 78688 9354 7089 5172 35804 2618 3376 7653 3105 12858
internal_count=269800 56113 213687 157170 25967 118737 30146 16057 38433 13041 109383 9910 56517 33816 8548 23873 9943 30695 30127 20713 78688 9354 7089 5172 35804 2618 3376 7653 3105 12858
shrinkage=0.01


Tree=10
num_leaves=31
num_cat=0
split_feature=0 0 0 9 5 5 2 5 1 4 4 9 0 7 1 2 0 7 5 9 10 3 9 5 4 4 0 4 1 5
split_gain=5.5975e+12 8.25117e+11 6.57673e+11 4.22654e+11 2.99937e+11 2.52275e+11 2.14226e+11 1.96941e+11 1.60769e+11 1.95618e+11 1.32945e+11 1.29864e+11 1.17406e+11 1.1241e+11 1.09651e+11 9.61667e+10 9.28773e+10 9.05497e+10 8.41745e+10 8.07751e+10 8.0541e+10 7.5299e+10 7.26884e+10 1.08662e+11 7.18484e+10 7.13019e+10 7.14673e+10 6.90062e+10 1.17086e+11 8.09031e+10
threshold=1.0908361813318768 -1.1659718147269145 1.5242519153868068 -0.89787605155101946 0.68588268961391086 -0.028932472463075311 0.22724703448614242 -0.13614824745203977 -0.69654503670730272 0.42268123685592751 -0.91248124260658026 0.11972787743575349 -0.95745372495735703 -0.36639693196461337 -1.5133111815946363 -1.5027189273084314 1.6289719103622307 -0.34986706628613196 -0.61158447087069479 -0.8080328988953559 1.0020746063496226 -0.96054424341999667 0.036762361459070955 1.2636868096315006 -1.3968734968069634 -0.86676531809328572 1.7326610577921404 0.010889536384889924 -1.1778543536797006 0.25892251189550197
decision_type=2 2 2 2 2 2 2 2 2 2 2 2 2 2 2 2 2 2 2 2 2 2 2 2 2 2 2 2 2 2
left_child=1 7 4 12 18 15 8 -1 9 17 -6 -5 -3 -13 -12 20 24 -7 -2 -8 -4 -11 23 -9 -10 26 -17 28 29 -24
right_child=2 3 5 11 10 6 19 22 16 21 14 13 -14 -15 -16 25 -18 -19 -20 -21 -22 -23 27 -25 -26 -27 -28 -29 -30 -31
leaf_value=-81.991331795851693 -14.124532119363776 -19.016554007511402 76.096530604433994 -12.862789472856633 153.69120487871481 166.7023445742725 112.80495966856324 -73.585814867194571 195.21439726088389 658.81771446814912 180.0277779828871 -14.371098894251675 67.72583812158139 -51.334708850994119 42.801219696176844 3.4469639724773162 121.80042519882505 337.7168539609051 19.719630256506857 57.80144264974156 190.36137865764445 117.69191074350633 -14.573390371336805 -4.4766262174960882 44.173411088074928 59.179740076626956 58.195837624399871 -59.463009100449554 -38.849888394820532 87.154435431392741
leaf_weight=32995 10638 2028 2063 39444 1726 489 3334 15092 350 26 642 12370 6767 24566 6260 5415 7444 844 23767 13404 880 2349 1716 2679 3144 27085 4260 7388 9199 1436
leaf_count=32995 10638 2028 2063 39444 1726 489 3334 15092 350 26 642 12370 6767 24566 6260 5415 7444 844 23767 13404 880 2349 1716 2679 3144 27085 4260 7388 9199 1436
internal_value=0 -3886.75 5333.04 -1792.17 2247.59 7200.83 9319.68 -6417.13 12112.7 17803.1 7519.52 -2548.07 4772.43 -3895.55 5556.56 5525.95 10183.7 27498.2 925.504 6875.75 11026.3 12361.6 -4849.63 -6316.75 5930.34 5085.59 2755.34 -3528.79 -2082.7 3177.22
internal_weight=0 155680 114120 85175 43033 71087 31384 70505 14646 3708 8628 76380 8795 36936 6902 39703 10938 1333 34405 16738 2943 2375 37510 17771 3494 36760 9675 19739 12351 3152
internal_count=269800 155680 114120 85175 43033 71087 31384 70505 14646 3708 8628 76380 8795 36936 6902 39703 10938 1333 34405 16738 2943 2375 37510 17771 3494 36760 9675 19739 12351 3152
shrinkage=0.01


Tree=11
num_leaves=31
num_cat=0
split_feature=6 0 0 6 6 5 0 0 9 5 6 5 5 0 6 6 6 5 0 6 5 4 6 5 5 6 0 5 6 5
split_gain=6.37034e+12 8.13026e+12 2.20677e+12 2.48468e+12 6.66224e+11 1.46545e+12 5.1448e+11 4.89147e+11 4.29247e+11 3.84254e+11 3.80824e+11 8.55451e+11 3.13836e+11 2.58235e+11 2.5208e+11 2.48956e+11 2.44939e+11 3.504e+11 2.36671e+11 2.29547e+11 4.03701e+11 4.68587e+11 2.08632e+11 3.19365e+11 2.03383e+11 3.34187e+11 2.08555e+11 2.03974e+11 1.92664e+11 1.75994e+11
threshold=0.98520681261447085 0.74544684081039303 -1.2902135218019086 -0.93992470838576481 1.5663923570651057 0.39573472722903752 -2.3285965808460332 1.5756123294356692 -0.79159428263792475 1.9164208153731792 1.1556569362313132 1.1603799516461908 0.51532090252190554 1.530576326343889 -1.3567527164175912 0.13254065596380293 0.6934794859619644 -0.16617980076136515 1.0908361813318768 1.4372592436004898 -0.17585958388147432 0.71080498091561084 -0.66420640145483378 -0.33981528897373814 -0.74830076868251771 1.8249524842732794 1.5171334382232027 0.70897701112680023 1.9358456639677415 0.6750949936978573
decision_type=2 2 2 2 2 2 2 2 2 2 2 2 2 2 2 2 2 2 2 2 2 2 2 2 2 2 2 2 2 2
left_child=2 6 -1 8 5 19 -2 16 29 22 11 -7 13 -10 -14 -11 -5 -18 -12 -3 -21 -22 23 -9 25 -6 -26 28 -28 -4
right_child=1 4 3 7 24 10 -8 9 12 15 18 -13 14 -15 -16 -17 17 -19 -20 20 21 -23 -24 -25 26 -27 27 -29 -30 -31
leaf_value=-87.590697558475412 52.889311796393329 56.179318775150087 182.77409654618481 -48.916778145507699 56.334086420136884 27.915916070864029 -39.590164401750798 106.12994814919067 48.577759311229258 18.212397880183488 171.10205027232348 356.08602567845304 52.73532010331899 125.87615569603439 -42.698229953696647 283.8796896684654 -101.24429905014277 43.520718180397836 332.30394507726061 49.783387615564344 454.01370723221038 -15.254024230038443 -17.899244969403455 -33.657284743062561 236.51593302169047 297.46483903768217 398.79136292174081 63.195612725305345 173.98746521318463 65.956996241836663
leaf_weight=45293 8008 6290 3658 79074 884 1770 24178 3685 16372 656 1080 1441 5402 5872 5676 763 2243 6568 5812 1209 738 299 29924 2937 2058 1643 3628 221 426 1992
leaf_count=45293 8008 6290 3658 79074 884 1770 24178 3685 16372 656 1080 1441 5402 5872 5676 763 2243 6568 5812 1209 738 299 29924 2937 2058 1643 3628 221 426 1992
internal_value=0 9130 -2576.88 -878.02 21756.8 18363.3 -1658.09 -3038.64 6099.13 -39.0677 26513.6 17518.9 4732.55 6898.31 383.833 16106.2 -4334.41 666.816 30704.3 8716.7 17394.9 31870.9 -665.954 4413.13 28896 21311.2 31922.5 35904.1 37516.9 14158.8
internal_weight=0 59685 210115 164822 27499 18639 32186 125850 38972 37965 10103 3211 33322 22244 11078 1419 87885 8811 6892 8536 2246 1037 36546 6622 8860 2527 6333 4275 4054 5650
internal_count=269800 59685 210115 164822 27499 18639 32186 125850 38972 37965 10103 3211 33322 22244 11078 1419 87885 8811 6892 8536 2246 1037 36546 6622 8860 2527 6333 4275 4054 5650
shrinkage=0.01


Tree=12
num_leaves=31
num_cat=0
split_feature=6 0 0 6 6 5 0 0 9 5 6 5 5 0 6 6 6 5 0 6 5 4 6 5 5 6 0 5 6 5
split_gain=6.24357e+12 7.96847e+12 2.16286e+12 2.43524e+12 6.52966e+11 1.43629e+12 5.04381e+11 4.79413e+11 4.20705e+11 3.76608e+11 3.73245e+11 8.38427e+11 3.0759e+11 2.53097e+11 2.47063e+11 2.44002e+11 2.40065e+11 3.43427e+11 2.31961e+11 2.24979e+11 3.95841e+11 3.29784e+11 2.04774e+11 2.93486e+11 1.99336e+11 3.27537e+11 2.04405e+11 1.99915e+11 1.8883e+11 1.73809e+11
threshold=0.98520681261447085 0.74544684081039303 -1.2902135218019086 -0.93992470838576481 1.5663923570651057 0.39573472722903752 -2.2897562247522791 1.5756123294356692 -0.79159428263792475 1.9164208153731792 1.1556569362313132 1.1603799516461908 0.51532090252190554 1.530576326343889 -1.3567527164175912 0.13254065596380293 0.6934794859619644 -0.16617980076136515 1.0908361813318768 1.4372592436004898 -0.038539595366631547 0.72676645135675144 -0.70442646237936613 -0.24644323385784581 -0.74830076868251771 1.8249524842732794 1.5171334382232027 0.70897701112680023 1.9358456639677415 1.6033936777289741
decision_type=2 2 2 2 2 2 2 2 2 2 2 2 2 2 2 2 2 2 2 2 2 2 2 2 2 2 2 2 2 2
left_child=2 6 -1 8 5 19 -2 16 -4 22 11 -7 13 -10 -14 -11 -5 -18 -12 -3 -21 -22 23 -9 25 -6 -26 28 -28 -20
right_child=1 4 3 7 24 10 -8 9 12 15 18 -13 14 -15 -16 -17 17 -19 29 20 21 -23 -24 -25 26 -27 27 -29 -30 -31
leaf_value=-86.714790631970814 50.409037152105164 55.617525685894663 140.17243318176861 -48.427610840325997 55.770744281322166 27.636756721868188 -39.865964230198777 107.65486336218976 48.091981868134745 18.030275513486167 169.39102908872951 352.5251655891376 52.207967242638482 124.61739281813684 -42.271247744213277 281.04089452176078 -100.23185598282426 43.085510862583924 341.44463730499695 74.038570641959012 471.17852747237828 3.9993611814000922 -16.683711145837066 -39.998680769037087 234.15077431845594 294.49018933408234 394.80345297989538 62.563655693779168 172.24759020115849 89.043216695461538
leaf_weight=45293 8361 6290 5650 79074 884 1770 23825 3385 16372 656 1080 1441 5402 5872 5676 763 2243 6568 5525 1452 591 203 30926 2235 2058 1643 3628 221 426 287
leaf_count=45293 8361 6290 5650 79074 884 1770 23825 3385 16372 656 1080 1441 5402 5872 5676 763 2243 6568 5525 1452 591 203 30926 2235 2058 1643 3628 221 426 287
internal_value=0 9038.7 -2551.11 -869.239 21539.3 18179.6 -1641.51 -3008.25 6038.14 -38.677 26248.5 17343.7 4685.23 6829.33 379.995 15945.2 -4291.06 660.147 30397.3 8629.53 17220.9 35173.6 -659.295 4893.5 28607 21098.1 31603.2 35545.1 37141.7 32898.1
internal_weight=0 59685 210115 164822 27499 18639 32186 125850 38972 37965 10103 3211 33322 22244 11078 1419 87885 8811 6892 8536 2246 794 36546 5620 8860 2527 6333 4275 4054 5812
internal_count=269800 59685 210115 164822 27499 18639 32186 125850 38972 37965 10103 3211 33322 22244 11078 1419 87885 8811 6892 8536 2246 794 36546 5620 8860 2527 6333 4275 4054 5812
shrinkage=0.01


Tree=13
num_leaves=31
num_cat=0
split_feature=6 0 0 6 6 5 0 0 9 5 6 5 5 0 6 6 6 5 0 6 5 4 6 5 5 6 0 5 6 5
split_gain=6.11932e+12 7.8099e+12 2.11982e+12 2.38678e+12 6.39972e+11 1.40771e+12 4.9449e+11 4.69873e+11 4.12333e+11 3.69113e+11 3.65818e+11 8.21743e+11 3.01469e+11 2.4806e+11 2.42147e+11 2.39146e+11 2.35288e+11 3.36753e+11 2.27345e+11 2.20502e+11 3.89372e+11 4.52062e+11 2.00788e+11 3.07857e+11 1.95369e+11 3.21019e+11 2.00337e+11 1.95936e+11 1.85072e+11 1.72492e+11
threshold=0.98520681261447085 0.74544684081039303 -1.2902135218019086 -0.93992470838576481 1.5663923570651057 0.39573472722903752 -2.3285965808460332 1.5756123294356692 -0.79159428263792475 1.9164208153731792 1.1556569362313132 1.1603799516461908 0.51532090252190554 1.530576326343889 -1.3567527164175912 0.13254065596380293 0.6934794859619644 -0.028932472463075311 1.0908361813318768 1.4372592436004898 -0.17585958388147432 0.71080498091561084 -0.66420640145483378 -0.33981528897373814 -0.74830076868251771 1.8249524842732794 1.5171334382232027 0.70897701112680023 1.9358456639677415 0.6750949936978573
decision_type=2 2 2 2 2 2 2 2 2 2 2 2 2 2 2 2 2 2 2 2 2 2 2 2 2 2 2 2 2 2
left_child=2 6 -1 8 5 19 -2 16 29 22 11 -7 13 -10 -14 -11 -5 -18 -12 -3 -21 -22 23 -9 25 -6 -26 28 -28 -4
right_child=1 4 3 7 24 10 -8 9 12 15 18 -13 14 -15 -16 -17 17 -19 -20 20 21 -23 -24 -25 26 -27 27 -29 -30 -31
leaf_value=-85.847642451532607 51.856328453664837 55.061350263660209 179.54463355320408 -47.943334783737747 55.213038202583519 27.360389416516838 -38.80878310058133 104.17126823586524 47.611061489043905 17.849972244908169 167.69711915233401 348.99991570844827 51.685887050404453 123.37121933080134 -41.848535409446875 278.23048664258005 -92.770235081120063 45.022279686100276 325.69109612049027 48.545168051423865 445.55283422064326 -15.366351843486264 -17.553415601243373 -33.074246742198532 231.80926499699945 291.54528804830892 390.85541513427859 61.938018586171701 170.52511172518484 63.89570160050588
leaf_weight=45293 8008 6290 3658 79074 884 1770 24178 3685 16372 656 1080 1441 5402 5872 5676 763 2461 6350 5812 1209 738 299 29924 2937 2058 1643 3628 221 426 1992
leaf_count=45293 8008 6290 3658 79074 884 1770 24178 3685 16372 656 1080 1441 5402 5872 5676 763 2461 6350 5812 1209 738 299 29924 2937 2058 1643 3628 221 426 1992
internal_value=0 8948.31 -2525.6 -860.547 21323.9 17997.8 -1625.1 -2978.17 5977.76 -38.2903 25986 17170.3 4638.37 6761.03 376.195 15785.7 -4248.15 653.546 30093.3 8543.23 17048.7 31265.5 -652.702 4329.99 28320.9 20887.1 31287.2 35189.6 36770.3 13877.1
internal_weight=0 59685 210115 164822 27499 18639 32186 125850 38972 37965 10103 3211 33322 22244 11078 1419 87885 8811 6892 8536 2246 1037 36546 6622 8860 2527 6333 4275 4054 5650
internal_count=269800 59685 210115 164822 27499 18639 32186 125850 38972 37965 10103 3211 33322 22244 11078 1419 87885 8811 6892 8536 2246 1037 36546 6622 8860 2527 6333 4275 4054 5650
shrinkage=0.01


Tree=14
num_leaves=31
num_cat=0
split_feature=6 0 0 6 6 5 0 0 9 5 5 6 5 0 6 0 6 6 5 6 5 6 5 5 6 6 0 5 6 5
split_gain=5.99755e+12 7.65448e+12 2.07763e+12 2.33928e+12 6.27419e+11 1.58051e+12 4.84785e+11 4.60522e+11 4.04128e+11 3.61768e+11 3.31273e+11 9.16232e+11 2.9574e+11 2.94113e+11 2.90996e+11 2.45834e+11 2.34387e+11 2.30703e+11 2.50621e+11 2.30605e+11 3.30302e+11 1.97031e+11 2.82635e+11 1.93277e+11 2.79497e+11 2.02304e+11 1.84052e+11 1.69059e+11 1.64413e+11 4.32649e+11
threshold=0.98520681261447085 0.74544684081039303 -1.2902135218019086 -0.93992470838576481 1.3182554549989469 0.84508818891723314 -2.2897562247522791 1.5756123294356692 -0.79159428263792475 1.9164208153731792 -0.019487430660517096 1.6042066182548604 0.25892251189550197 1.3705305408384636 -1.2258137314749376 1.530576326343889 0.13254065596380293 1.7667512100274432 1.1407437038177284 0.6934794859619644 -0.16617980076136515 -0.70442646237936613 -0.24644323385784581 -0.74830076868251771 1.8249524842732794 1.9881119630275059 1.0908361813318768 0.6750949936978573 1.0963423041798561 1.337706460872681
decision_type=2 2 2 2 2 2 2 2 2 2 2 2 2 2 2 2 2 2 2 2 2 2 2 2 2 2 2 2 2 2
left_child=2 6 -1 8 5 -3 -2 19 27 21 11 -6 15 -12 -14 -10 -11 18 -15 -5 -21 22 -9 24 -13 -25 -7 -4 29 -28
right_child=1 4 3 7 10 26 -8 9 12 16 13 23 14 17 -16 -17 -18 -19 -20 20 -22 -23 -24 25 -26 -27 28 -29 -30 -31
leaf_value=-84.989166038751918 49.42466219835768 56.035840993759358 177.74918480462489 -47.463901421386161 68.427926322598537 190.74397334217011 -39.079217604917943 105.63026005309936 49.737819838989637 17.671472132235039 186.23676184408214 56.079017535141361 47.956043805678256 367.49602084436907 -41.749105262069804 131.09290885420037 275.44818093521098 136.86603597264232 112.38850081553826 -98.301834898875114 42.250168444470354 -16.359876606601148 -39.267951544802195 363.52496757441884 288.62983778031224 114.4163782645435 -3.7171115357599644 63.256744587457327 391.12965157561541 430.21253376287683
leaf_weight=45293 8361 6644 3658 79074 3088 1057 23825 3385 12786 656 1881 754 9439 5184 5862 5235 763 567 416 2243 6568 30926 2235 2798 1643 369 423 1992 2172 503
leaf_count=45293 8361 6644 3658 79074 3088 1057 23825 3385 12786 656 1881 754 9439 5184 5862 5235 763 567 416 2243 6568 30926 2235 2798 1643 369 423 1992 2172 503
internal_value=0 8858.83 -2500.35 -851.942 21110.6 15170.6 -1608.84 -2948.39 5917.98 -37.9074 24951.7 20656.2 4591.99 29569.7 1358.89 7337.1 15627.9 32908.3 34854.5 -4205.67 647.01 -646.175 4800.61 28322.5 21547.9 33450 30468.7 13738.3 34356.3 23199.2
internal_weight=0 59685 210115 164822 27499 10799 32186 125850 38972 37965 16700 8652 33322 8048 15301 18021 1419 6167 5600 87885 8811 36546 5620 5564 2397 3167 4155 5650 3098 926
internal_count=269800 59685 210115 164822 27499 10799 32186 125850 38972 37965 16700 8652 33322 8048 15301 18021 1419 6167 5600 87885 8811 36546 5620 5564 2397 3167 4155 5650 3098 926
shrinkage=0.01


Tree=15
num_leaves=31
num_cat=0
split_feature=0 0 0 9 5 5 5 3 4 0 7 4 8 1 9 5 8 2 5 9 2 9 5 4 5 7 2 5 2 1
split_gain=5.08299e+12 7.6156e+11 5.71443e+11 3.82097e+11 2.91976e+11 2.2287e+11 1.92915e+11 1.77873e+11 1.36087e+11 1.20186e+11 1.19277e+11 9.82018e+10 9.68025e+10 8.93277e+10 8.35053e+10 8.094e+10 9.60905e+10 8.75703e+10 8.09396e+10 8.05953e+10 7.55844e+10 6.76688e+10 6.49669e+10 7.92103e+10 6.45978e+10 7.83781e+10 9.21299e+10 1.0154e+11 7.27224e+10 6.72357e+10
threshold=1.1076290029114797 -1.1353186046916248 1.546661038424946 -0.89787605155101946 0.64256449445101982 0.4258594097684309 -0.076931801097987265 -0.18070550698163382 -0.91248124260658026 -0.95745372495735703 -0.57848789975470238 0.55954964772472515 0.051979072857418429 -1.5133111815946363 -0.28746808422745723 1.0059304155129061 -0.34582434492824526 -0.049422196024709632 -0.31880388604749871 0.27395667009441677 -0.82115344512757782 -0.93037702202445838 1.1031718997489011 -0.59425966400387609 -0.37251340003780836 -0.45815647929849684 -0.55656924717853473 -0.019487430660517096 -1.6335291967276049 0.17844860627783019
decision_type=2 2 2 2 2 2 2 2 2 2 2 2 2 2 2 2 2 2 2 2 2 2 2 2 2 2 2 2 2 2
left_child=1 6 4 9 14 12 -1 15 -6 -3 -5 -12 21 -10 -2 16 -7 -17 -16 -18 -9 -4 -15 -24 -14 -26 27 29 -29 -27
right_child=2 3 5 10 8 7 -8 20 13 -11 11 -13 24 22 18 17 19 -19 -20 -21 -22 -23 23 -25 25 26 -28 28 -30 -31
leaf_value=-76.641147502341198 35.001215705919194 -22.066074074525055 83.586535413685453 9.6251393473974982 146.66956060143596 73.474061430689375 -44.243564286416998 143.09407235737368 168.68445260522461 67.036794260352153 -19.156302761655738 -45.049138289129381 61.511337957464548 17.081212792068385 -18.14670573555815 350.65820306044355 157.79568574201679 164.99609642564047 17.375635808195046 430.85144400881052 70.71508198419221 39.724372040525161 144.94141294357627 42.110409407063983 51.106763059128902 95.556967631598496 61.341116664892724 752.97810551757811 208.39481656759233 349.0627507546165
leaf_weight=36045 10467 1955 4145 9608 1970 1803 37503 1655 625 6708 42236 22424 13550 4025 11572 364 2087 841 14392 114 11253 23226 1128 2230 2488 2140 1831 25 1280 110
leaf_count=36045 10467 1955 4145 9608 1970 1803 37503 1655 625 6708 42236 22424 13550 4025 11572 364 2087 841 14392 114 11253 23226 1128 2230 2488 2140 1831 25 1280 110
internal_value=0 -3669.53 5124.69 -1591.98 2428.31 6994.86 -6012.12 9990 7221.07 4692.87 -2325.08 -2813.59 5882.8 5389.36 1115.63 14922.5 12760 22108 154.354 17193.9 7999.52 4636.68 4417.61 7665.28 7474.82 9752.7 11897 14865.2 21882.7 10795.1
internal_weight=0 156479 113321 82931 46409 66912 73548 18117 9978 8663 74268 64660 48795 8008 36431 5209 4004 1205 25964 2201 12908 27371 7383 3358 21424 7874 5386 3555 1305 2250
internal_count=269800 156479 113321 82931 46409 66912 73548 18117 9978 8663 74268 64660 48795 8008 36431 5209 4004 1205 25964 2201 12908 27371 7383 3358 21424 7874 5386 3555 1305 2250
shrinkage=0.01


Tree=16
num_leaves=31
num_cat=0
split_feature=6 0 0 6 6 5 0 0 5 9 0 6 5 5 6 5 6 6 5 6 5 4 0 4 6 5 4 6 4 9
split_gain=5.75854e+12 7.28567e+12 2.02282e+12 2.33807e+12 5.67696e+11 1.60441e+12 5.08273e+11 4.95917e+11 3.88108e+11 3.64014e+11 3.17334e+11 2.7935e+11 3.77196e+11 2.78739e+11 2.38868e+11 2.31651e+11 3.9001e+11 2.29464e+11 3.26833e+11 2.2621e+11 5.70606e+11 2.54423e+11 2.24828e+11 2.15199e+11 2.07576e+11 1.9434e+11 2.07687e+11 2.90943e+11 3.24084e+11 1.89036e+11
threshold=1.001414263546158 0.74544684081039303 -1.3120357656936654 -1.0131435382986271 1.4680672950593781 0.64256449445101982 1.560235840732717 -2.2897562247522791 1.9164208153731792 -0.93037702202445838 1.5092508176162671 -0.68466798785870908 -0.32946918537180242 0.53541570900474689 0.11933776293877182 -0.58762787145290984 1.7142233643198341 0.6934794859619644 -0.047823958494215474 1.3618001783485894 0.20145523018138092 1.0555301433230591 1.1224400491435691 -0.3594055801193603 -1.3911302680633086 0.74389080592458712 0.51746248063960143 1.6908884247165621 -0.16197684510979446 -0.89787605155101946
decision_type=2 2 2 2 2 2 2 2 2 2 2 2 2 2 2 2 2 2 2 2 2 2 2 2 2 2 2 2 2 2
left_child=2 7 -1 9 5 19 17 -2 11 -4 -6 12 -8 -11 -10 16 -12 29 -19 -3 -21 -22 -7 -18 -15 26 27 28 -17 -5
right_child=1 4 3 6 10 22 8 -9 14 13 15 -13 -14 24 -16 25 23 18 -20 20 21 -23 -24 -25 -26 -27 -28 -29 -30 -31
leaf_value=-84.609956460355917 51.527213303837442 46.613227175909763 157.60738302123428 11.26143377908574 185.4744638281706 179.34034807866675 110.50771597542494 -39.075792909166005 24.635372708274161 76.726835322002657 40.463176129881155 -17.065467436039505 -27.313633299366952 56.950135808670531 277.40986790486744 387.96129049885997 447.39543961830196 -89.95460755106707 42.389413131167601 46.603494156093412 464.24724907456158 -42.789037141718417 315.12144241498595 221.20553593871156 -32.98943138402533 142.523827833761 281.74764488592712 271.93208597225049 675.85620475506823 -49.247695262309321
leaf_weight=43757 8161 6341 3868 5530 3815 1596 4447 23258 698 19450 830 31628 3588 5171 805 1086 653 2555 6920 1424 642 117 5169 1182 5094 479 2189 935 611 77801
leaf_count=43757 8161 6341 3868 5530 3815 1596 4447 23258 698 19450 830 31628 3588 5171 805 1086 653 2555 6920 1424 642 117 5169 1182 5094 479 2189 935 611 77801
internal_value=0 8805.37 -2406.6 -825.49 20829.7 16809.9 -2695.75 -1554.19 228.806 6635.51 26046.9 -368.908 4896.41 5447.68 16002 29639 22033.7 -3993 670.192 7683.93 16463.8 38608.8 28308.8 30169.7 1231.77 33463.1 35371.8 41357.5 49161.7 -4523.22
internal_weight=0 58488 211312 167555 27069 15289 133972 31419 41166 33583 11780 39663 8035 29715 1503 7965 2665 92806 9475 8524 2183 759 6765 1835 10265 5300 4821 2632 1697 83331
internal_count=269800 58488 211312 167555 27069 15289 133972 31419 41166 33583 11780 39663 8035 29715 1503 7965 2665 92806 9475 8524 2183 759 6765 1835 10265 5300 4821 2632 1697 83331
shrinkage=0.01


Tree=17
num_leaves=31
num_cat=0
split_feature=6 0 0 6 6 5 0 0 5 9 0 6 5 5 6 5 6 6 5 4 0 6 5 4 6 5 4 6 4 9
split_gain=5.64395e+12 7.14069e+12 1.98256e+12 2.29154e+12 5.56399e+11 1.57248e+12 4.98192e+11 4.86048e+11 3.9581e+11 3.5677e+11 3.11019e+11 2.73297e+11 3.7348e+11 2.73192e+11 2.47085e+11 2.27041e+11 3.82249e+11 2.21708e+11 5.59251e+11 2.4936e+11 2.20402e+11 2.13823e+11 3.13228e+11 2.10917e+11 2.03445e+11 1.90473e+11 2.03554e+11 2.85153e+11 3.17634e+11 1.8707e+11
threshold=1.001414263546158 0.74544684081039303 -1.3120357656936654 -1.0131435382986271 1.4680672950593781 0.64256449445101982 1.546661038424946 -2.2897562247522791 1.9164208153731792 -0.93037702202445838 1.5092508176162671 -0.70442646237936613 -0.32946918537180242 0.53541570900474689 0.11933776293877182 -0.58762787145290984 1.7142233643198341 1.3618001783485894 0.20145523018138092 1.0555301433230591 1.1076290029114797 0.6934794859619644 -0.047823958494215474 -0.3594055801193603 -1.3911302680633086 0.74389080592458712 0.51746248063960143 1.6908884247165621 -0.16197684510979446 -0.89787605155101946
decision_type=2 2 2 2 2 2 2 2 2 2 2 2 2 2 2 2 2 2 2 2 2 2 2 2 2 2 2 2 2 2
left_child=2 7 -1 9 5 17 21 -2 11 -4 -6 12 -8 -11 -10 16 -12 -3 -19 -20 -7 29 -23 -18 -15 26 27 28 -17 -5
right_child=1 4 3 6 10 20 8 -9 14 13 15 -13 -14 24 -16 25 23 18 19 -21 -22 22 -24 -25 -26 -27 -28 -29 -30 -31
leaf_value=-83.763857059023735 51.011941146763533 46.147095107779563 156.03130936999494 11.169517412555329 183.61971969695921 173.5941713251037 111.77634379582599 -38.685034573444071 22.6588959134079 75.959566793646417 40.058544307881093 -16.804066987161463 -27.457041378816648 56.380633837671859 277.43091551659461 384.08167840202429 442.92148186092169 46.137459246365545 459.60477723261278 -42.361146563668534 310.80171370543826 -89.716439204282167 40.694584600281864 218.99348127031891 -32.659537076744371 141.09858960335839 278.93016915946532 269.21276708592706 669.09764095225228 -49.061780597199352
leaf_weight=43757 8161 6341 3868 5529 3815 1506 4275 23258 709 19450 830 33239 3507 5171 822 1086 653 1424 642 117 5259 2523 6821 1182 5094 479 2189 935 611 76547
leaf_count=43757 8161 6341 3868 5529 3815 1506 4275 23258 709 19450 830 33239 3507 5171 822 1086 653 1424 642 117 5259 2523 6821 1182 5094 479 2189 935 611 76547
internal_value=0 8717.32 -2382.53 -817.235 20621.4 16641.8 -2668.79 -1538.65 157.725 6569.15 25786.5 -431.482 4903.01 5393.2 15944.7 29342.6 21813.4 7607.09 16299.1 38222.7 28025.7 -3984.42 548.193 29868 1219.45 33128.5 35018.1 40944 48670.1 -4500.43
internal_weight=0 58488 211312 167555 27069 15289 133972 31419 42552 33583 11780 41021 7782 29715 1531 7965 2665 8524 2183 759 6765 91420 9344 1835 10265 5300 4821 2632 1697 82076
internal_count=269800 58488 211312 167555 27069 15289 133972 31419 42552 33583 11780 41021 7782 29715 1531 7965 2665 8524 2183 759 6765 91420 9344 1835 10265 5300 4821 2632 1697 82076
shrinkage=0.01


Tree=18
num_leaves=31
num_cat=0
split_feature=6 0 0 6 6 5 0 0 5 5 0 6 5 6 5 6 5 0 6 0 6 5 5 6 5 6 6 5 4 0
split_gain=5.53163e+12 6.99859e+12 1.94315e+12 2.24279e+12 5.45415e+11 1.49938e+12 4.8415e+11 4.76375e+11 3.37721e+11 3.19719e+11 3.2375e+11 2.89872e+11 3.22624e+11 2.74269e+11 3.393e+11 2.66149e+11 7.15043e+11 2.60993e+11 2.43305e+11 2.23905e+11 2.18983e+11 1.90845e+11 1.90482e+11 3.09101e+11 1.85721e+11 1.95718e+11 1.39053e+11 2.40943e+11 1.38908e+11 1.90644e+11
threshold=1.001414263546158 0.74544684081039303 -1.3010040070361468 -1.0131435382986271 1.5149806442356686 0.45593411141882695 1.6412861346943635 -2.2897562247522791 1.9164208153731792 0.51532090252190554 1.6412861346943635 -0.68466798785870908 -0.24644323385784581 0.6934794859619644 -0.26711790838723498 1.1556569362313132 1.1603799516461908 1.5171334382232027 -1.3911302680633086 1.0611470421261422 0.11933776293877182 1.4225598993463773 -0.74830076868251771 1.8249524842732794 0.69742529368290573 1.9358456639677415 -0.78208326371692827 -0.10627167657420296 1.0222277257667163 1.6811655552500742
decision_type=2 2 2 2 2 2 2 2 2 2 2 2 2 2 2 2 2 2 2 2 2 2 2 2 2 2 2 2 2 2
left_child=2 7 -1 9 5 -3 13 -2 11 10 -4 12 -8 26 -15 16 -7 -6 -11 -17 -10 28 23 -19 25 -24 27 -5 29 -21
right_child=1 4 3 6 17 15 8 -9 20 18 -12 -13 -14 14 -16 19 -18 22 -20 21 -22 -23 24 -25 -26 -27 -28 -29 -30 -31
leaf_value=-82.237781671552611 50.501821814792848 69.93452410036555 69.852545905815447 27.204760672156787 187.91340392651139 21.051092787992015 115.53098897715199 -38.298185175427115 26.416537419244051 68.413151658075293 169.15790332308435 -15.21156190176135 -27.813011050051049 -95.300964417115793 43.646097097082148 143.93905437620811 343.78550496093538 57.052576637120787 -20.792393998016227 321.53016124848494 275.35719797216439 157.53780084240131 366.79705629738095 312.11202484723884 122.7074124381566 140.92355674316534 -48.722241977539035 -53.674686845664922 164.43547124246302 477.55020618024554
leaf_weight=44573 8161 7997 17082 7040 3307 1411 3978 23258 673 6241 4064 26604 2594 2274 7737 824 1337 777 5994 3082 744 624 4218 1223 404 422 73989 7725 393 1050
leaf_count=44573 8161 7997 17082 7040 3307 1411 3978 23258 673 6241 4064 26604 2594 2274 7737 824 1337 777 5994 3082 744 624 4218 1223 404 422 73989 7725 393 1050
internal_value=0 8630.14 -2358.71 -790.843 20415.2 16883.2 -2625.76 -1523.26 593.736 6539.7 8893.78 -52.0047 5895.24 -3753.4 1208.43 25951.8 17807.3 26119.9 2471.08 29698.9 15712.4 32148.2 29560.4 21302.1 32834.9 34625.4 -4313.07 -1511.11 34409 36117.7
internal_weight=0 58488 211312 166739 27069 16718 133358 31419 34593 33381 21146 33176 6572 98765 10011 8721 2748 10351 12235 5973 1417 5149 7044 2000 5044 4640 88754 14765 4525 4132
internal_count=269800 58488 211312 166739 27069 16718 133358 31419 34593 33381 21146 33176 6572 98765 10011 8721 2748 10351 12235 5973 1417 5149 7044 2000 5044 4640 88754 14765 4525 4132
shrinkage=0.01


Tree=19
num_leaves=31
num_cat=0
split_feature=6 0 0 6 6 5 5 0 9 5 0 0 6 0 5 6 6 5 4 0 6 0 4 9 5 4 4 6 5 6
split_gain=5.42156e+12 6.85932e+12 1.90489e+12 2.20306e+12 5.35576e+11 1.51537e+12 4.86919e+11 4.66896e+11 3.89987e+11 3.12393e+11 3.1104e+11 2.99281e+11 2.5641e+11 2.53952e+11 2.18932e+11 3.70115e+11 2.163e+11 5.44022e+11 2.43306e+11 2.1498e+11 3.22764e+11 2.13765e+11 2.06697e+11 1.87866e+11 1.8456e+11 1.98891e+11 2.81013e+11 2.87056e+11 2.21985e+11 2.53127e+11
threshold=1.001414263546158 0.74544684081039303 -1.3120357656936654 -0.9297415652871267 1.4680672950593781 0.64256449445101982 1.8327082944681137 -2.2897562247522791 -0.94531855249404695 0.53541570900474689 1.5242519153868068 1.5092508176162671 -1.3911302680633086 1.5823753514738612 -0.58762787145290984 1.7142233643198341 1.3618001783485894 0.20145523018138092 1.0555301433230591 0.81047944833361496 0.76923859730948285 1.1224400491435691 -0.3594055801193603 -0.89787605155101946 0.74389080592458712 0.51746248063960143 -0.71173453582981427 1.6452931702264839 0.33608421953650697 1.7667512100274432
decision_type=2 2 2 2 2 2 2 2 2 2 2 2 2 2 2 2 2 2 2 2 2 2 2 2 2 2 2 2 2 2
left_child=2 7 -1 8 5 16 10 -2 -4 13 23 -6 -11 -10 15 -13 -3 -18 -19 -8 -21 -7 -17 -5 25 26 -16 -28 29 -29
right_child=1 4 3 6 11 21 19 -9 9 12 -12 14 -14 -15 24 22 17 18 -20 20 -22 -23 -24 -25 -26 -27 27 28 -30 -31
leaf_value=-82.103840763424799 49.996803562575415 44.818165040871001 144.8116857597291 14.815393827441 179.95490096216466 173.65607686399218 -8.3296846078755653 -37.915202673010441 49.486818998285983 55.244123317623689 -9.5226792401638232 38.50766794128878 -39.233265865418524 129.71246059113838 288.80007264178732 435.78229442321873 44.97673917639122 452.89119968972847 -42.943806261894032 80.01541533726791 364.24878339131675 306.05426206082018 214.10595141372102 -47.12046967915613 137.63481519097826 273.01629213616314 640.49174699609932 658.11865304702701 29.712908395328878 236.99121203380273
leaf_weight=43757 8161 6341 4440 5231 3815 1596 1581 23258 19295 5180 41309 830 6449 4960 1196 653 1424 642 117 1806 513 5169 1182 76791 479 2189 704 289 161 282
leaf_count=43757 8161 6341 4440 5231 3815 1596 1581 23258 19295 5180 41309 830 6449 4960 1196 653 1424 642 117 1806 513 5169 1182 76791 479 2189 704 289 161 282
internal_value=0 8543.84 -2335.12 -800.792 20211.1 16306.6 -2842.16 -1508.03 5640.15 4546.24 -3190.03 25278.5 285.057 6589.25 28766.9 21373.4 7437.48 16022.8 37645.8 8158.93 14289.2 27481.9 29299.1 -4317.05 32484.6 34344.6 40202.2 49632.2 35766.6 45013.6
internal_weight=0 58488 211312 167555 27069 15289 127231 31419 40324 35884 123331 11780 11629 24255 7965 2665 8524 2183 759 3900 2319 6765 1835 82022 5300 4821 2632 1436 732 571
internal_count=269800 58488 211312 167555 27069 15289 127231 31419 40324 35884 123331 11780 11629 24255 7965 2665 8524 2183 759 3900 2319 6765 1835 82022 5300 4821 2632 1436 732 571
shrinkage=0.01


Tree=20
num_leaves=31
num_cat=0
split_feature=6 0 0 6 5 6 5 0 9 6 0 5 0 6 0 0 6 5 5 5 0 0 9 5 6 5 5 6 5 6
split_gain=5.43919e+12 6.78218e+12 1.88302e+12 1.97886e+12 5.36186e+11 4.72631e+11 1.45967e+12 4.32722e+11 3.57993e+11 2.83275e+11 2.97089e+11 2.80455e+11 2.58723e+11 2.3919e+11 2.38259e+11 2.33209e+11 2.16967e+11 8.1412e+11 2.99728e+11 2.17837e+11 2.16803e+11 2.02769e+11 1.83393e+11 1.80476e+11 2.62302e+11 1.89501e+11 1.68455e+11 2.72759e+11 1.65221e+11 1.62591e+11
threshold=1.0344772646888079 0.74544684081039303 -1.1353186046916248 -0.9297415652871267 1.7054801382109266 1.5318462268504536 0.39573472722903752 -2.2897562247522791 -0.94531855249404695 0.80697431075701609 0.81047944833361496 0.51532090252190554 1.5242519153868068 -1.3567527164175912 1.5171334382232027 -1.6651505005129315 1.2289372849825164 0.9745124549810037 1.2636868096315006 1.7651135082874714 1.5539029162188764 1.319747493694599 -0.89787605155101946 -0.74830076868251771 1.8249524842732794 0.72065541027340985 1.311138410362884 0.76923859730948285 0.48574408024880505 1.9358456639677415
decision_type=2 2 2 2 2 2 2 2 2 2 2 2 2 2 2 2 2 2 2 2 2 2 2 2 2 2 2 2 2 2
left_child=2 7 15 8 12 6 -3 -2 28 -6 -11 20 22 -13 -7 26 17 -8 21 -19 -10 -18 -5 24 -16 29 -1 -28 -4 -25
right_child=1 5 3 4 9 14 16 -9 11 10 -12 13 -14 -15 23 -17 18 19 -20 -21 -22 -23 -24 25 -26 -27 27 -29 -30 -31
leaf_value=-92.610911181347035 50.286302889582714 68.314345550886159 198.40136999355656 15.938882289273225 41.62977363046037 187.04513080924721 22.7214839570827 -36.480234566945406 49.652053071931498 -24.318807179347885 359.47962579742244 53.69735876425446 -9.0739217304899462 -41.705756343974627 63.770807966077648 -45.929885384431799 222.90132383355831 367.86027804911879 108.14469649811728 100.43940502407126 122.25127220822031 373.92519489001177 -44.809653459561943 361.70563480225326 300.48788806168216 84.180910239644561 -92.244130101487443 157.98509403399012 76.209967354678369 154.42540510721915
leaf_weight=34004 7714 7358 2437 5363 3654 3081 1518 22551 16531 296 633 5142 41438 5375 740 21508 1234 1841 694 365 5476 3180 67728 4091 1274 303 1110 717 2027 417
leaf_count=34004 7714 7358 2437 5363 3654 3081 1518 22551 16531 296 633 5142 41438 5375 740 21508 1234 1841 694 365 5476 3180 67728 4091 1274 303 1110 717 2027 417
internal_value=0 8749.69 -2295.21 -495.038 -2479.12 20563.2 17234.3 -1436.5 5894.27 8127.15 23719.3 4741.7 -2903.54 493.899 26003.8 -7196 25901 20096.2 30133 32361.3 6771.69 33170.4 -4035.23 29298.9 21351.1 32626.1 -8758.5 595.749 14291.7 34253.2
internal_weight=0 56361 213439 156100 119112 26096 16190 30265 36988 4583 929 32524 114529 10517 9906 57339 8832 3724 5108 2206 22007 4414 73091 6825 2014 4811 35831 1827 4464 4508
internal_count=269800 56361 213439 156100 119112 26096 16190 30265 36988 4583 929 32524 114529 10517 9906 57339 8832 3724 5108 2206 22007 4414 73091 6825 2014 4811 35831 1827 4464 4508
shrinkage=0.01


Tree=21
num_leaves=31
num_cat=0
split_feature=6 0 0 6 6 5 5 0 9 5 6 5 5 0 0 0 6 6 6 0 0 6 5 6 5 5 6 5 6 6
split_gain=5.33185e+12 6.66752e+12 1.813e+12 2.00337e+12 5.55833e+11 1.53113e+12 4.23937e+11 4.17879e+11 3.50869e+11 2.97397e+11 7.98584e+11 2.74874e+11 2.62848e+11 2.4892e+11 2.44049e+11 2.40895e+11 2.34431e+11 2.34025e+11 2.25996e+11 2.12532e+11 2.03678e+11 1.86238e+11 2.88957e+11 1.63983e+11 3.10496e+11 1.61934e+11 1.60951e+11 1.6048e+11 2.33736e+11 1.94989e+11
threshold=0.98520681261447085 0.74544684081039303 -1.1353186046916248 -0.9297415652871267 1.3182554549989469 0.84508818891723314 1.7054801382109266 -2.2897562247522791 -0.94531855249404695 -0.019487430660517096 1.6247480572232311 0.51532090252190554 1.1407437038177284 1.6597278926660548 -1.6651505005129315 1.3946904852000657 -1.3567527164175912 1.7667512100274432 0.11933776293877182 1.546661038424946 1.4016443789350104 -0.59665007225110189 -0.50658709392613155 0.65646286286361766 -0.010221268097652494 0.48574408024880505 -1.0448007380935855 -0.90317415860623718 1.8932317977568851 1.9881119630275059
decision_type=2 2 2 2 2 2 2 2 2 2 2 2 2 2 2 2 2 2 2 2 2 2 2 2 2 2 2 2 2 2
left_child=2 7 14 8 5 -3 13 -2 25 10 -6 19 15 23 -1 -11 -13 -17 -8 -10 -20 22 -15 -5 -25 -4 -16 28 -12 -29
right_child=1 4 3 6 9 -7 18 -9 11 12 27 16 -14 21 26 17 -18 -19 20 -21 -22 -23 -24 24 -26 -27 -28 29 -30 -31
leaf_value=-88.317634877092132 46.150003253786331 47.140583313444949 196.41735508984556 -43.626737139062001 70.658150967427289 292.17393072600993 -14.434272083492647 -36.045459264113617 48.788450498596902 198.66474276556383 57.641380829849041 53.160384609594459 60.880336587887726 106.94882903605728 11.466825038818158 347.52546586675135 -41.288698795217741 127.30727172292575 42.290608630662447 119.95361056290467 221.49235840458442 -18.279506336119358 -26.201984487960093 -84.83378697745357 42.496706253082586 75.447867813152698 -58.706392478987773 340.79898753341115 281.67200649331159 129.58559574943573
leaf_weight=35071 8377 6620 2437 73894 3308 4148 1815 23640 16363 2016 754 5142 525 3349 4038 5010 5375 534 1271 5644 1266 23369 3175 2809 6018 2027 17152 2921 1218 514
leaf_count=35071 8377 6620 2437 73894 3308 4148 1815 23640 16363 2016 754 5142 525 3349 4038 5010 5375 534 1271 5644 1266 23369 3175 2809 6018 2027 17152 2921 1218 514
internal_value=0 8361.84 -2354.82 -579.503 19761.7 14153.1 -2608.06 -1453.97 5835.32 23356.6 19304.1 4694.28 27724.9 -2982.31 -7212.84 29227.4 488.96 32631.4 7076.34 6703.97 13171.5 -509.127 4214.9 -3876.05 197.656 14148.8 -4533.41 26791.5 19601.3 30919.4
internal_weight=0 59585 210215 153954 27568 10768 116966 32017 36988 16800 8715 32524 8085 112614 56261 7560 10517 5544 4352 22007 2537 29893 6524 82721 8827 4464 21190 5407 1972 3435
internal_count=269800 59585 210215 153954 27568 10768 116966 32017 36988 16800 8715 32524 8085 112614 56261 7560 10517 5544 4352 22007 2537 29893 6524 82721 8827 4464 21190 5407 1972 3435
shrinkage=0.01


Tree=22
num_leaves=31
num_cat=0
split_feature=6 0 0 6 6 6 0 4 7 9 0 0 0 6 3 0 10 6 6 0 7 6 6 4 8 0 9 9 6 0
split_gain=5.22683e+12 6.5159e+12 1.80906e+12 1.90107e+12 4.54218e+11 4.53216e+11 4.16033e+11 4.10428e+11 3.70057e+11 3.43887e+11 3.30136e+11 2.32432e+11 2.24101e+11 1.90744e+11 1.83149e+11 2.01163e+11 1.62996e+11 1.64503e+11 1.57972e+11 1.45201e+11 1.35575e+11 1.31751e+11 1.27374e+11 1.26651e+11 1.26293e+11 1.26044e+11 1.24603e+11 1.22711e+11 1.21336e+11 1.5084e+11
threshold=1.0344772646888079 0.74544684081039303 -1.1353186046916248 -0.9297415652871267 1.5318462268504536 0.80697431075701609 -2.2897562247522791 0.77541429132582651 0.30312389262010736 -0.94531855249404695 1.7099788393678275 1.5171334382232027 -1.6651505005129315 1.2289372849825164 -0.31383836387220593 1.1224400491435691 2.3276673033622295 -0.57724161722298628 -1.0448007380935855 1.5416625736355118 0.21522664636738867 -1.2258137314749376 -1.2390682641036395 1.0555301433230591 0.010630947022509541 1.4856673026416176 -1.0052638317130504 -1.0052638317130504 0.84389896084024751 -2.558970375117926
decision_type=2 2 2 2 2 2 2 2 2 2 2 2 2 2 2 2 2 2 2 2 2 2 2 2 2 2 2 2 2 2
left_child=2 6 12 9 7 10 -2 8 13 -4 26 23 28 24 19 -16 17 -12 -14 21 25 -11 -17 -6 -3 -7 -5 -15 -1 -30
right_child=1 4 3 5 11 20 -8 -9 -10 14 16 -13 18 27 15 22 -18 -19 -20 -21 -22 -23 -24 -25 -26 -27 -28 -29 29 -31
leaf_value=-91.020869857961685 49.321940120407298 224.70620924989279 140.07300721053156 9.6420244082089681 141.39286447236816 37.207348077808149 -35.754977539081409 63.313315353832543 117.21438282487853 99.672589422754541 45.215511225877407 287.44611889462175 11.352156764482022 404.46362068049535 -18.032147141312738 83.882827380814874 168.50767164533639 -16.310069924132495 -58.048109250116227 146.35317468139377 -13.9912958289248 31.63797356230933 18.055683526701404 282.06804292891229 108.0134992202851 131.53646811750124 -42.233036583024386 252.28287196586058 64.461118361313453 -88.23006515788704
leaf_weight=33211 7714 2262 4464 4913 2174 4265 22551 2998 4334 4815 5713 6825 4038 602 6690 5823 577 18158 17470 2298 2892 6962 5936 907 1572 2121 80473 4422 1165 1455
leaf_count=33211 7714 2262 4464 4913 2174 4265 22551 2998 4334 4815 5713 6825 4038 602 6690 5823 577 18158 17470 2298 2892 6962 5936 907 1572 2121 80473 4422 1165 1455
internal_value=0 8577.19 -2249.96 -485.496 20156.5 -2430.19 -1407.04 16893.1 19293.3 5776.97 -2997.12 25490 -7053.54 22998 4647.34 2574.63 242.911 -158.527 -4501.86 7364.17 4281.26 5945.38 5065.3 18280.6 17686 6853.71 -3924.82 27051.8 -8585.22 -2033.49
internal_weight=0 56361 213439 156100 26096 119112 30265 16190 13192 36988 109834 9906 57339 8858 32524 18449 24448 23871 21508 14075 9278 11777 11759 3081 3834 6386 85386 5024 35831 2620
internal_count=269800 56361 213439 156100 26096 119112 30265 16190 13192 36988 109834 9906 57339 8858 32524 18449 24448 23871 21508 14075 9278 11777 11759 3081 3834 6386 85386 5024 35831 2620
shrinkage=0.01


Tree=23
num_leaves=31
num_cat=0
split_feature=6 0 0 6 5 6 5 0 9 6 0 5 0 6 5 5 6 0 0 5 0 0 4 9 5 6 5 4 5 6
split_gain=5.12282e+12 6.38623e+12 1.77306e+12 1.86324e+12 5.11826e+11 4.45179e+11 1.40006e+12 4.07754e+11 3.37044e+11 2.73335e+11 2.87814e+11 2.68613e+11 2.45575e+11 2.45444e+11 8.42311e+11 2.75988e+11 2.28303e+11 2.27807e+11 2.19642e+11 2.13293e+11 2.05691e+11 1.84499e+11 2.30826e+11 1.77678e+11 1.73754e+11 2.53677e+11 1.86388e+11 1.70054e+11 1.63228e+11 2.64013e+11
threshold=1.0344772646888079 0.74544684081039303 -1.1353186046916248 -0.9297415652871267 1.7054801382109266 1.5318462268504536 0.30734884378106692 -2.2897562247522791 -0.94531855249404695 0.80697431075701609 0.81047944833361496 0.51532090252190554 1.5242519153868068 1.2289372849825164 0.9745124549810037 1.2636868096315006 -1.3567527164175912 1.5171334382232027 -1.6651505005129315 1.7651135082874714 1.5539029162188764 1.319747493694599 1.0555301433230591 -0.89787605155101946 -0.74830076868251771 1.8249524842732794 0.72065541027340985 -0.092140570376157679 1.311138410362884 0.76923859730948285
decision_type=2 2 2 2 2 2 2 2 2 2 2 2 2 2 2 2 2 2 2 2 2 2 2 2 2 2 2 2 2 2
left_child=2 7 18 8 12 6 -3 -2 -4 -6 -11 20 23 14 -8 21 -13 -7 28 -16 -10 -15 27 -5 25 -19 -26 -23 -1 -30
right_child=1 5 3 4 9 17 13 -9 11 10 -12 16 -14 15 19 -17 -18 24 -20 -21 -22 22 -24 -25 26 -27 -28 -29 29 -31
leaf_value=-89.941068382151101 48.828720549328793 56.988835587708422 138.67227725141794 16.17597273204057 40.626472868598348 180.97746364319559 21.846084975651642 -35.397427872880527 48.279593016658104 -24.669380176389542 353.09065742070828 52.072807567253143 -8.7579000575166503 215.12422652404115 359.37601089298306 102.44950727204424 -41.1336987144605 59.329538126713523 -44.568433125550165 94.759244685225298 118.99382220457426 337.19931455187702 150.49168201307745 -43.618509721835515 333.35444433363944 292.1226197273578 77.134171175972469 501.30753556752614 -89.528304688170152 156.656328034647
leaf_weight=34004 7714 6730 4464 5363 3654 3081 1751 22551 16531 296 633 5142 41438 1321 1841 694 5375 740 21508 365 5476 2105 481 67728 4508 1274 303 902 1110 717
leaf_count=34004 7714 6730 4464 5363 3654 3081 1751 22551 16531 296 633 5142 41438 1321 1841 694 5375 740 21508 365 5476 2105 481 67728 4508 1274 303 902 1110 717
internal_value=0 8491.41 -2227.46 -480.641 -2405.89 19954.9 16724.1 -1392.97 5719.2 7956.65 23272.8 4600.86 -2820.55 24567.7 18560.8 28887 443.708 25235.1 -6983.01 31559.3 6587.54 31577.2 35389.1 -3923.11 28457.2 20658.8 31721.8 38642.6 -8499.37 708.603
internal_weight=0 56361 213439 156100 119112 26096 16190 30265 36988 4583 929 32524 114529 9460 3957 5503 10517 9906 57339 2206 22007 4809 3488 73091 6825 2014 4811 3007 35831 1827
internal_count=269800 56361 213439 156100 119112 26096 16190 30265 36988 4583 929 32524 114529 9460 3957 5503 10517 9906 57339 2206 22007 4809 3488 73091 6825 2014 4811 3007 35831 1827
shrinkage=0.01


Tree=24
num_leaves=31
num_cat=0
split_feature=6 1 6 3 3 4 6 5 6 5 5 1 1 9 3 9 5 6 4 6 9 5 6 4 1 6 1 5 3 9
split_gain=5.02333e+12 2.14322e+12 1.12387e+12 1.44741e+12 9.60079e+11 5.88826e+11 5.84923e+11 5.28012e+11 5.03137e+11 7.32705e+11 4.58453e+11 4.563e+11 3.44854e+11 4.23239e+11 3.10725e+11 3.08934e+11 2.5633e+11 2.83164e+11 2.57052e+11 2.52756e+11 3.88059e+11 2.51758e+11 2.50299e+11 2.49153e+11 1.85635e+11 1.83948e+11 1.8193e+11 1.70588e+11 1.91604e+11 1.65929e+11
threshold=0.98520681261447085 0.49471381555175603 -0.8795203290773419 0.16256048753045624 0.13936134633249525 0.58903069327714241 1.6042066182548604 1.8327082944681137 1.2289372849825164 1.0688098467647402 0.25892251189550197 -0.38922316231484927 -0.18227671346429758 -0.81802306060962893 -0.18880759214652987 -0.79159428263792475 -0.057498644494588864 1.5663923570651057 -0.12679455728934694 1.3768083829544511 -0.4041713333127645 0.23975948287301113 -1.2258137314749376 -0.30744437374560168 1.5760061252350013 -0.051424787891469016 -1.549510815241647 0.76816769389888007 -0.35791086707812753 1.1097515828300371
decision_type=2 2 2 2 2 2 2 2 2 2 2 2 2 2 2 2 2 2 2 2 2 2 2 2 2 2 2 2 2 2
left_child=2 4 3 15 5 8 27 26 9 -2 19 29 13 -8 -3 -1 17 -10 -18 -6 -21 -17 -23 -19 -16 -9 -4 -7 -29 -5
right_child=1 14 7 11 10 6 12 25 16 -11 -12 -13 -14 -15 24 21 18 23 -20 20 -22 22 -24 -25 -26 -27 -28 28 -30 -31
leaf_value=122.78011335604022 29.445760023513341 -22.000868085507577 -72.619388547010985 -94.126275376758429 -57.000749636313401 6.4013853781553962 -105.43909049245056 -26.063075067900986 59.171988772126134 305.03137636286874 123.94649180631987 12.031653446513408 -34.460673764946286 277.63066110795017 119.99429870247144 65.116933211800031 251.06602329173418 359.63469643724005 400.82172221238312 -52.395731266006926 124.51031889109902 47.93067214555213 -37.093220671066668 151.98211826590392 9.2304527657740003 121.54065462826559 -36.620867319926639 -40.849252228097818 279.27399364668372 16.854496847275652
leaf_weight=5308 2915 15552 15725 13070 3045 4117 321 1217 1204 1442 7347 7813 541 2842 2910 17968 4217 1076 1574 1997 3271 7459 6462 1248 3152 2757 130934 291 523 1502
leaf_count=5308 2915 15552 15725 13070 3045 4117 321 1217 1204 1442 7347 7813 541 2842 2910 17968 4217 1076 1574 1997 3271 7459 6462 1248 3152 2757 130934 291 523 1502
internal_value=0 8116.31 -2285.68 1390.76 12641.2 16853.9 10388.7 -3739.88 20936 12065.4 6639.25 -4962.75 19884.9 23875.4 167.115 5214.28 25083.4 18364.1 29177 1552.65 5744.86 4038.51 846.336 24812.4 6240.15 7633.84 -4048.07 3255.48 16483.2 -8268.7
internal_weight=0 59585 210215 59582 37971 22311 8635 150633 13676 4357 15660 22385 3704 3163 21614 37197 9319 3528 5791 8313 5268 31889 13921 2324 6062 3974 146659 4931 814 14572
internal_count=269800 59585 210215 59582 37971 22311 8635 150633 13676 4357 15660 22385 3704 3163 21614 37197 9319 3528 5791 8313 5268 31889 13921 2324 6062 3974 146659 4931 814 14572
shrinkage=0.01


Tree=25
num_leaves=31
num_cat=0
split_feature=6 0 0 6 0 6 5 0 5 9 6 5 6 5 5 6 0 9 5 0 6 5 4 4 6 5 6 0 4 6
split_gain=4.8086e+12 6.13685e+12 1.70442e+12 1.88661e+12 4.4015e+11 4.27971e+11 1.26402e+12 4.08585e+11 3.70427e+11 3.21414e+11 2.52137e+11 3.98176e+11 2.34983e+11 9.3201e+11 3.09128e+11 2.34026e+11 2.1821e+11 2.03058e+11 2.02648e+11 1.8361e+11 1.78066e+11 2.68958e+11 1.7395e+11 2.02768e+11 1.81834e+11 1.67885e+11 1.66716e+11 1.627e+11 1.56986e+11 1.56315e+11
threshold=1.0344772646888079 0.74544684081039303 -1.2761194453847942 -1.0235755209679431 1.5242519153868068 1.5663923570651057 0.25892251189550197 -2.4127431815330391 1.7651135082874714 -0.91468647154444616 -0.71393543283654826 -0.16617980076136515 1.2441057101371034 0.99008915860542834 1.2636868096315006 0.11933776293877182 1.3304660526177527 -0.89787605155101946 0.59857421947473566 1.0908361813318768 0.6934794859619644 -0.26711790838723498 1.0555301433230591 -0.092140570376157679 1.4219570301000675 1.7054801382109266 -1.3911302680633086 1.5171334382232027 1.0555301433230591 0.84389896084024751
decision_type=2 2 2 2 2 2 2 2 2 2 2 2 2 2 2 2 2 2 2 2 2 2 2 2 2 2 2 2 2 2
left_child=2 7 -1 9 17 6 -3 -2 10 -4 11 -6 13 -8 16 -10 -14 -5 -11 -15 -19 -22 23 -18 -24 -21 -20 28 -7 -12
right_child=1 5 3 4 8 27 12 -9 15 18 29 -13 14 19 -16 -17 22 20 26 25 21 -23 24 -25 -26 -27 -28 -29 -30 -31
leaf_value=-74.953541802579494 59.176144010015058 60.922789486392531 145.85661154010893 19.01493331664242 99.104809334816281 137.01983924218604 27.26052322374758 -32.914162378142855 14.067796067925011 68.009228325182917 -21.261026294994014 -43.289870715191171 196.37043812575368 174.63407039478588 62.997490473803353 239.90678688565239 318.12570057356146 -45.841544687888913 51.770450362802976 429.09366723113754 -95.992421026442173 30.513315689029088 11.069198108506123 489.90406119877707 366.59236760676117 188.00308866213729 -35.344144516533113 279.82718802486949 300.49096097287918 63.161913669700319
leaf_weight=47258 6012 6863 3989 6144 5201 1907 2064 24256 823 19407 33268 3155 1384 629 595 1037 2187 72913 4600 1292 2201 7108 297 1002 279 372 4205 6155 849 2348
leaf_count=47258 6012 6863 3989 6144 5201 1907 2064 24256 823 19407 33268 3155 1384 629 595 1037 2187 72913 4600 1292 2201 7108 297 1002 279 372 4205 6155 849 2348
internal_value=0 8204.32 -2195.46 -690.263 -2339.67 19512.1 16564.5 -1462.27 175.026 6183.66 -409.677 4534.04 23679.7 18141.8 27880.4 13997.9 30374.2 -3643.94 4995.67 32017.9 -4058.32 60.2571 34321.2 37209.9 18327.6 37519.6 1016.72 25123.4 18737.8 -1569.54
internal_weight=0 56143 213657 166399 134198 25875 16964 30268 45832 32201 43972 8356 10101 4357 5744 1860 5149 88366 28212 2293 82222 9309 3765 3189 576 1664 8805 8911 2756 35616
internal_count=269800 56143 213657 166399 134198 25875 16964 30268 45832 32201 43972 8356 10101 4357 5744 1860 5149 88366 28212 2293 82222 9309 3765 3189 576 1664 8805 8911 2756 35616
shrinkage=0.01


Tree=26
num_leaves=31
num_cat=0
split_feature=6 0 0 6 5 6 5 0 9 0 5 6 0 6 5 5 6 1 0 0 9 4 4 6 5 5 0 5 4 5
split_gain=4.71291e+12 6.01473e+12 1.6705e+12 1.84947e+12 4.44833e+11 4.19455e+11 1.23887e+12 4.00454e+11 3.53564e+11 2.72453e+11 2.51621e+11 2.81287e+11 2.31031e+11 2.30307e+11 9.13463e+11 3.02977e+11 2.21425e+11 2.77587e+11 2.13867e+11 1.79956e+11 1.75219e+11 1.70488e+11 1.98733e+11 1.78215e+11 1.66746e+11 1.64544e+11 1.59462e+11 1.56248e+11 1.53881e+11 1.43311e+11
threshold=1.0344772646888079 0.74544684081039303 -1.2761194453847942 -0.9297415652871267 1.7054801382109266 1.5663923570651057 0.25892251189550197 -2.4127431815330391 -0.91468647154444616 1.5171334382232027 0.26849951284209173 -1.2258137314749376 1.5171334382232027 1.2441057101371034 0.99008915860542834 1.2636868096315006 0.8256171080476461 0.27338960044249128 1.3304660526177527 1.0908361813318768 -0.89787605155101946 1.0555301433230591 -0.092140570376157679 1.4219570301000675 0.45593411141882695 1.7054801382109266 1.5171334382232027 2.8747658414038675 0.98890348546127804 0.70897701112680023
decision_type=2 2 2 2 2 2 2 2 2 2 2 2 2 2 2 2 2 2 2 2 2 2 2 2 2 2 2 2 2 2
left_child=2 7 -1 8 9 6 -3 -2 24 20 12 -12 -10 14 -8 18 27 -18 -15 -16 -5 22 -20 -23 -4 -21 28 -6 -7 -28
right_child=1 5 3 4 16 26 13 -9 10 -11 11 -13 -14 15 19 -17 17 -19 21 25 -22 23 -24 -25 -26 -27 29 -29 -30 -31
leaf_value=-74.204006157718709 58.584382593982312 60.313561978125982 187.8337751408495 16.046087149830019 -1.4041085447877375 130.43632040435764 26.987917631867727 -32.585021058232385 43.055415773777611 -8.6195142208640352 46.08080487842637 -40.612116518948589 118.51221623130667 194.40673270873253 172.88773055636071 62.367515702319743 353.13484592029528 -4.7886834887982737 314.94444275834206 424.80273028081416 -43.974302991272232 10.958507013802578 485.00502196534683 362.92644406827975 69.614182543741677 186.12305929912031 286.29723723239334 142.79261861581719 286.89716876472397 25.810854381839977
leaf_weight=47258 6012 6863 2582 5203 2878 1786 2064 24256 13384 42087 9504 6174 5823 1384 629 595 542 361 2187 1292 74626 297 1002 279 2218 372 5936 1017 970 219
leaf_count=47258 6012 6863 2582 5203 2878 1786 2064 24256 13384 42087 9504 6174 5823 1384 629 595 542 361 2187 1292 74626 297 1002 279 2218 372 5936 1017 970 219
internal_value=0 8122.28 -2173.5 -683.36 -2549.09 19317 16398.9 -1447.64 5273.92 -2920.79 4166.73 1194.11 6593.17 23442.9 17960.3 27601.6 6895.57 21004.5 30070.5 31697.7 -4006.24 33977.9 36837.8 18144.3 13320.6 37144.4 24872.2 3624.62 18550.4 27702.9
internal_weight=0 56143 213657 166399 126714 25875 16964 30268 39685 121916 34885 15678 19207 10101 4357 5744 4798 903 5149 2293 79829 3765 3189 576 4800 1664 8911 3895 2756 6155
internal_count=269800 56143 213657 166399 126714 25875 16964 30268 39685 121916 34885 15678 19207 10101 4357 5744 4798 903 5149 2293 79829 3765 3189 576 4800 1664 8911 3895 2756 6155
shrinkage=0.01


Tree=27
num_leaves=31
num_cat=0
split_feature=6 0 0 6 0 6 5 0 5 3 6 5 6 6 5 5 0 0 6 5 0 4 4 6 5 0 6 5 4 5
split_gain=4.61913e+12 5.89503e+12 1.63742e+12 1.81407e+12 4.27955e+11 4.11108e+11 1.21422e+12 3.92936e+11 3.58354e+11 2.7601e+11 2.44763e+11 3.90854e+11 2.28024e+11 2.25724e+11 8.95285e+11 2.96947e+11 2.17857e+11 2.09611e+11 1.9141e+11 2.9855e+11 1.76375e+11 1.67096e+11 1.94778e+11 1.74947e+11 1.6127e+11 1.56289e+11 1.54132e+11 1.53368e+11 1.51088e+11 1.40698e+11
threshold=1.0344772646888079 0.74544684081039303 -1.2902135218019086 -1.0235755209679431 1.5242519153868068 1.5663923570651057 0.25892251189550197 -2.2897562247522791 1.7651135082874714 -0.58012094835007066 -0.70442646237936613 -0.16617980076136515 0.11933776293877182 1.2441057101371034 0.99008915860542834 1.2636868096315006 1.1224400491435691 1.3304660526177527 0.6934794859619644 -0.17585958388147432 1.0908361813318768 1.0555301433230591 -0.092140570376157679 1.4372592436004898 1.7054801382109266 1.5171334382232027 0.84389896084024751 -0.59975969943245944 1.0555301433230591 0.84508818891723314
decision_type=2 2 2 2 2 2 2 2 2 2 2 2 2 2 2 2 2 2 2 2 2 2 2 2 2 2 2 2 2 2
left_child=2 7 -1 9 18 6 -3 -2 10 -4 11 -6 -10 14 -8 17 -11 -15 -5 -20 -16 22 -19 -23 -22 28 -12 -28 -7 -18
right_child=1 5 3 4 8 25 13 -9 12 16 26 -13 -14 15 20 -17 29 21 19 -21 24 23 -24 -25 -26 -27 27 -29 -30 -31
leaf_value=-74.110087271949979 47.757511259169497 59.710426011948279 107.01561159202369 -41.117684041716664 95.994269587751759 134.24600263392543 26.718038409486297 -35.240129358059725 13.392886558685673 4.1213508715616625 -21.257717479985669 -42.928880147352423 236.31735752089162 192.46266584242011 171.15885316657719 61.743841021898419 85.099126553809498 311.79499913304375 -90.860438783033246 36.194927889862981 420.55470291657343 25.387336509751833 480.1549706937501 376.54518846715393 184.26182751999107 274.25862663059871 -85.465621723182124 106.71218614941212 294.61707772640233 13.089811989666664
leaf_weight=46355 7625 6863 9062 78964 5382 1907 2064 22643 823 9205 32995 3247 1037 1384 629 595 10549 2187 2445 7592 1292 323 1002 253 372 6155 539 1809 849 3653
leaf_count=46355 7625 6863 9062 78964 5382 1907 2064 22643 823 9205 32995 3247 1037 1384 629 595 10549 2187 2445 7592 1292 323 1002 253 372 6155 539 1809 849 3653
internal_value=0 8041.06 -2151.77 -694.568 -2310.46 19123.8 16234.9 -1433.17 172.178 6015.71 -402.918 4371.9 13767.9 23208.5 17780.7 27325.6 4201.58 29769.8 -3588.92 524.441 31380.8 33638.2 36469.5 17962.9 36773 24623.5 -1568.69 6259.64 18364.9 6657.71
internal_weight=0 56143 213657 167302 134833 25875 16964 30268 45832 32469 43972 8629 1860 10101 4357 5744 23407 5149 89001 10037 2293 3765 3189 576 1664 8911 35343 2348 2756 14202
internal_count=269800 56143 213657 167302 134833 25875 16964 30268 45832 32469 43972 8629 1860 10101 4357 5744 23407 5149 89001 10037 2293 3765 3189 576 1664 8911 35343 2348 2756 14202
shrinkage=0.01


Tree=28
num_leaves=31
num_cat=0
split_feature=6 0 0 6 0 6 5 0 5 9 6 5 6 5 5 6 5 6 0 5 0 9 6 5 0 5 4 0 5 5
split_gain=4.5272e+12 5.77772e+12 1.60501e+12 1.78003e+12 4.15268e+11 4.02927e+11 1.19005e+12 3.85776e+11 3.30805e+11 3.08613e+11 2.53168e+11 3.77168e+11 2.21232e+11 8.77469e+11 2.91038e+11 2.20643e+11 3.07712e+11 2.11049e+11 2.06007e+11 1.86873e+11 1.72865e+11 1.61497e+11 1.60431e+11 1.58061e+11 1.53179e+11 1.48536e+11 1.48098e+11 1.42983e+11 1.40459e+11 1.60867e+11
threshold=1.0344772646888079 0.74544684081039303 -1.2761194453847942 -1.0235755209679431 1.560235840732717 1.5663923570651057 0.25892251189550197 -2.4127431815330391 1.7651135082874714 -0.79159428263792475 -0.65499086557607766 -0.24644323385784581 1.2441057101371034 0.99008915860542834 1.2636868096315006 0.6934794859619644 -0.26711790838723498 -0.064018075667460678 1.4094566337036591 0.59857421947473566 1.0908361813318768 -0.89787605155101946 -1.3911302680633086 1.7054801382109266 1.5171334382232027 0.6750949936978573 0.98890348546127804 1.530576326343889 0.70897701112680023 -0.90317415860623718
decision_type=2 2 2 2 2 2 2 2 2 2 2 2 2 2 2 2 2 2 2 2 2 2 2 2 2 2 2 2 2 2
left_child=2 7 -1 9 15 6 -3 -2 10 25 11 -6 13 -8 18 21 -17 -10 -14 27 -15 -5 -21 -22 26 -4 -7 -11 29 -26
right_child=1 5 3 4 8 24 12 -9 17 19 -12 -13 14 20 -16 16 -18 -19 -20 22 23 -23 -24 -25 28 -27 -28 -29 -30 -31
leaf_value=-72.732581950493582 57.520963487092949 59.113321691865075 176.38952909980074 12.012626149708829 96.849856064076619 127.78949689404428 26.450858393733125 -31.961962044427921 -1.2683913259944697 48.766432110048626 -16.17363835079378 -34.734116949468493 211.66083675730323 169.44726388224737 61.126401563820721 -91.580263443978751 38.249015039085606 220.505679255904 342.88980653928451 49.802801117626615 416.34915576356116 -43.850755762850056 -37.138583329927549 182.41920715803744 194.6623454834874 62.239640225518052 281.2820752973409 112.56630921389736 22.810159618429942 312.19286837204936
leaf_weight=47258 6012 6863 3034 5551 5416 1786 2064 24256 696 14166 30965 3644 1890 629 595 2361 8050 1119 3259 4426 1292 76396 4078 372 1591 1826 970 4671 219 4345
leaf_count=47258 6012 6863 3034 5551 5416 1786 2064 24256 696 14166 30965 3644 1890 629 595 2361 8050 1119 3259 4426 1292 76396 4078 372 1591 1826 970 4671 219 4345
internal_value=0 7960.65 -2130.25 -669.613 -2271.75 18932.6 16072.5 -1418.84 341.812 6007.31 -256.962 4392.58 22976.4 17602.9 27052.4 -3455.74 880.641 13546.2 29472.1 4702.09 31067 -4006.66 811.101 36405.2 24377.3 13350.1 18181.3 6458.69 27151.6 28069.2
internal_weight=0 56143 213657 166399 134198 25875 16964 30268 41840 32201 40025 9060 10101 4357 5744 92358 10411 1815 5149 27341 2293 81947 8504 1664 8911 4860 2756 18837 6155 5936
internal_count=269800 56143 213657 166399 134198 25875 16964 30268 41840 32201 40025 9060 10101 4357 5744 92358 10411 1815 5149 27341 2293 81947 8504 1664 8911 4860 2756 18837 6155 5936
shrinkage=0.01


Tree=29
num_leaves=31
num_cat=0
split_feature=6 0 0 6 5 6 5 0 9 0 5 6 0 6 0 6 5 5 0 5 9 0 4 4 6 5 5 0 4 5
split_gain=4.43711e+12 5.66275e+12 1.57409e+12 1.75401e+12 4.11457e+11 3.94908e+11 1.16637e+12 3.78531e+11 3.51515e+11 2.68586e+11 2.48379e+11 2.61146e+11 2.27471e+11 3.36524e+11 2.26892e+11 2.16829e+11 8.60007e+11 2.85246e+11 2.02177e+11 1.86715e+11 1.71462e+11 1.69425e+11 1.63845e+11 1.90738e+11 1.71472e+11 1.54915e+11 1.53751e+11 1.50131e+11 1.45412e+11 1.37664e+11
threshold=1.0344772646888079 0.74544684081039303 -1.325830108388971 -0.9297415652871267 1.7054801382109266 1.5663923570651057 0.25892251189550197 -2.2897562247522791 -0.78110190137615487 1.5171334382232027 0.26849951284209173 -1.2258137314749376 0.83875782179505631 0.80697431075701609 1.5171334382232027 1.2441057101371034 0.99008915860542834 1.2636868096315006 1.3304660526177527 2.8747658414038675 -0.89787605155101946 1.0908361813318768 1.0555301433230591 -0.092140570376157679 1.4219570301000675 1.7054801382109266 0.6750949936978573 1.5171334382232027 1.0555301433230591 0.70897701112680023
decision_type=2 2 2 2 2 2 2 2 2 2 2 2 2 2 2 2 2 2 2 2 2 2 2 2 2 2 2 2 2 2
left_child=2 7 -1 8 9 6 -3 -2 26 20 14 -12 -6 19 -10 16 -8 18 -17 -14 -5 -18 23 -20 -24 -23 -4 28 -7 -29
right_child=1 5 3 4 12 27 15 -9 10 -11 11 -13 13 -15 -16 17 21 -19 22 -21 -22 25 24 -25 -26 -27 -28 29 -30 -31
leaf_value=-74.632511669724622 46.894019306551591 58.522188836997493 157.89945325327375 16.119166529278974 -15.106532362265916 131.52825554495934 26.186349881643707 -34.568108824323794 39.659562845696072 -8.3779607853230758 41.216640121179083 -41.924356577694752 7.9796175361230626 329.51038485853462 115.43414981070228 188.42143043190757 167.75279083373246 60.515138804459774 305.45336382471265 211.55174019173191 -43.194549431154002 412.185664677989 7.3163784872241298 472.05810958618656 352.56177230602526 180.59501607054023 51.60737476719143 277.88476168327134 288.85808763924138 22.582057756049448
leaf_weight=43681 7625 6863 3887 5203 2084 1907 2064 22643 13339 42087 9582 6237 1601 615 5615 1384 629 595 2187 627 77005 1292 297 1002 279 372 2094 5936 849 219
leaf_count=43681 7625 6863 3887 5203 2084 1907 2064 22643 13339 42087 9582 6237 1601 615 5615 1384 629 595 2187 627 77005 1292 297 1002 279 372 2094 5936 849 219
internal_value=0 7881.04 -2108.95 -732.979 -2536.99 18743.2 15911.8 -1404.65 4987.14 -2892.26 3769.12 843.641 6425.52 12243 6210.73 22746.6 17426.9 26781.8 29177.3 6526.85 -3944.05 30756.3 32976.5 35780.1 17454.5 36041.2 12068.6 24133.5 17999.5 26880.1
internal_weight=0 56143 213657 169976 129222 25875 16964 30268 40754 124295 34773 15819 4927 2843 18954 10101 4357 5744 5149 2228 82208 2293 3765 3189 576 1664 5981 8911 2756 6155
internal_count=269800 56143 213657 169976 129222 25875 16964 30268 40754 124295 34773 15819 4927 2843 18954 10101 4357 5744 5149 2228 82208 2293 3765 3189 576 1664 5981 8911 2756 6155
shrinkage=0.01


Tree=30
num_leaves=31
num_cat=0
split_feature=6 1 6 3 1 5 6 5 1 5 5 3 3 9 10 6 9 6 5 4 4 6 6 5 5 1 3 1 5 5
split_gain=4.50252e+12 1.91664e+12 1.0909e+12 1.31608e+12 8.09399e+11 4.44649e+11 4.40691e+11 7.57649e+11 4.14638e+11 3.9652e+11 3.40514e+11 2.99111e+11 2.7107e+11 2.68224e+11 2.51475e+11 2.15203e+11 2.3496e+11 2.10658e+11 5.08763e+11 2.17854e+11 2.42023e+11 1.93821e+11 1.8223e+11 2.8432e+11 1.91285e+11 1.76277e+11 1.76165e+11 1.71296e+11 1.70733e+11 1.65417e+11
threshold=0.93540322321650671 0.52143623727201216 -0.8795203290773419 0.18821111725857601 -1.4578234245167851 -1.0977451471148612 1.5318462268504536 0.4258594097684309 -0.36180317740845397 -0.13614824745203977 1.8327082944681137 -0.99057317313075532 -0.18880759214652987 -0.79159428263792475 0.61320506508109862 1.8932317977568851 -0.64980117688216998 1.0963423041798561 1.2411499743239036 1.0555301433230591 -0.022390889208456163 1.2441057101371034 1.2885320936529985 1.020686762933632 1.1796456800080941 -1.549510815241647 0.49119102236692219 -0.93744899401667836 0.8187687708671737 0.65340632316323799
decision_type=2 2 2 2 2 2 2 2 2 2 2 2 2 2 2 2 2 2 2 2 2 2 2 2 2 2 2 2 2 2
left_child=2 4 3 13 9 15 7 -7 -5 -2 25 -8 -3 27 -15 -6 -17 18 -9 20 26 28 23 -22 -24 -4 -19 -1 -11 -13
right_child=1 12 10 8 5 6 11 17 -10 21 -12 29 -14 14 -16 16 -18 19 -20 -21 22 -23 24 -25 -26 -27 -28 -29 -30 -31
leaf_value=-59.753500718694966 -49.801434213292033 -21.577659755518717 -71.702673291858559 -79.756973097628276 -43.923370578104205 53.108317848297183 -27.813376303959505 13.047443956280091 11.714654965393137 -50.444727422821607 58.334410184107085 246.61723831951065 56.35591722243219 29.261155879810502 122.84429557454294 -82.632355809654172 266.70366665509965 225.92821043052808 271.43989907647415 61.075911454329734 -29.95845221849731 126.55228114245989 553.97147923903037 416.67359593904018 181.78959225904495 -35.749579833933531 89.314825464799284 133.29498746241333 102.37208460044862 73.417574709574382
leaf_weight=508 3360 16153 15255 14349 1793 7901 469 1987 7570 1581 3643 6811 6167 29336 3183 291 569 4783 1236 902 257 4110 528 320 187 128587 1176 4828 1360 600
leaf_count=508 3360 16153 15255 14349 1793 7901 469 1987 7570 1581 3643 6811 6167 29336 3183 291 569 4783 1236 902 257 4110 528 320 187 128587 1176 4828 1360 600
internal_value=0 7426.88 -2253.89 1349.85 11550.8 14201.8 15409 12833.4 -4816.61 3959.95 -3714.44 21709.6 -4.46683 4920.39 3842.12 1845.22 14849.8 18058.1 11213.9 20763.7 22586.9 8220.15 34994.4 21774 45663.2 -3956.25 19896.8 11491.6 2022.2 23259.5
internal_weight=0 62541 207259 59774 40221 29810 27157 19277 21919 10411 147485 7880 22320 37855 32519 2653 860 11376 3223 8153 7251 7051 1292 577 715 143842 5959 5336 2941 7411
internal_count=269800 62541 207259 59774 40221 29810 27157 19277 21919 10411 147485 7880 22320 37855 32519 2653 860 11376 3223 8153 7251 7051 1292 577 715 143842 5959 5336 2941 7411
shrinkage=0.01


Tree=31
num_leaves=31
num_cat=0
split_feature=6 0 0 6 6 0 3 6 4 7 0 0 0 0 0 6 10 6 0 7 0 6 6 9 6 4 6 4 8 9
split_gain=4.41455e+12 5.55922e+12 1.56829e+12 1.59351e+12 5.36593e+11 3.85901e+11 3.07899e+11 2.99825e+11 3.69332e+11 2.88367e+11 2.76848e+11 2.10053e+11 1.93246e+11 1.72636e+11 1.67737e+11 1.49769e+11 2.02476e+11 1.49423e+11 1.60435e+11 1.41107e+11 1.46105e+11 1.40717e+11 1.31672e+11 1.26506e+11 1.25588e+11 1.21025e+11 1.14605e+11 1.36614e+11 1.17227e+11 1.11061e+11
threshold=1.0813725484229166 0.74544684081039303 -1.1353186046916248 -0.9297415652871267 0.80697431075701609 -2.2897562247522791 -0.31383836387220593 1.5486086675109458 0.77541429132582651 0.27005113980398554 1.6811655552500742 1.560235840732717 -1.6651505005129315 1.1224400491435691 1.5171334382232027 -0.67471568646540792 2.3276673033622295 0.8805747911983357 -2.558970375117926 0.66602811775216519 1.4856673026416176 -1.1019901274229669 -1.2390682641036395 -1.0921849276776812 -1.2524664086446198 0.98890348546127804 1.2441057101371034 0.14980771192219175 -0.092782194160876408 -0.89787605155101946
decision_type=2 2 2 2 2 2 2 2 2 2 2 2 2 2 2 2 2 2 2 2 2 2 2 2 2 2 2 2 2 2
left_child=2 5 12 6 10 -2 11 8 9 26 29 23 17 -8 25 -12 -17 -1 -19 20 -6 -14 -15 -4 -25 -9 28 -28 -3 -5
right_child=1 7 3 4 19 -7 13 14 -10 -11 15 -13 21 22 -16 16 -18 18 -20 -21 -22 -23 -24 24 -26 -27 27 -29 -30 -31
leaf_value=-84.390101152833708 50.953865960334809 236.62714438866593 200.20319339849993 4.6043351747614967 28.945431992371134 -34.209239127233339 -13.340599799321256 124.98544181165956 62.284489173989513 123.20450575889488 50.548440662758424 150.71988138189013 17.891010503980855 80.037600313722308 264.77071503107027 -15.575605506263559 196.83286064714324 70.830868433718365 -77.186677550550883 -48.393192426286582 109.04058884830194 -51.806816356982388 16.265742728577845 99.451208532591323 34.988509663937784 261.7712958449809 229.37510434066925 365.14165988318922 113.77557506548555 -40.532577971203736
leaf_weight=33686 7075 1612 668 5870 6412 21459 7007 1852 2851 4341 4730 3732 3441 6501 6521 22283 458 1337 1619 1444 3532 18314 6450 4825 8089 994 3865 917 1499 76416
leaf_count=33686 7075 1612 668 5870 6412 21459 7007 1852 2851 4341 4730 3732 3441 6501 6521 22283 458 1337 1619 1444 3532 18314 6450 4825 8089 994 3865 917 1499 76416
internal_value=0 8172.75 -2009.41 -376.494 -2135.7 -1309.31 5341.43 19237.7 16478.4 18867 -2813.61 8427.26 -6439.13 2664.4 23681.5 -64.8962 -1129.77 -7840.81 -1023.83 4398.05 5739.44 -4078.27 4827.72 6601.46 5907.34 17276 22467.5 25541 17743.3 -3731.27
internal_weight=0 52986 216814 158417 121145 28534 37272 24452 15085 12234 109757 17314 58397 19958 9367 27471 22741 36642 2956 11388 9944 21755 12951 13582 12914 2846 7893 4782 3111 82286
internal_count=269800 52986 216814 158417 121145 28534 37272 24452 15085 12234 109757 17314 58397 19958 9367 27471 22741 36642 2956 11388 9944 21755 12951 13582 12914 2846 7893 4782 3111 82286
shrinkage=0.01


Tree=32
num_leaves=31
num_cat=0
split_feature=6 0 0 6 6 5 0 0 5 6 0 6 5 5 5 9 0 5 6 5 5 4 6 4 5 6 6 6 6 5
